{"targets":[{"isStage":true,"name":"Stage","variables":{"g":["#DeltaTime",0.061000033747404814],"dp":["@CameraRotateX",-28.979707697928788],"d(":["#CamSinX",-0.484499828],"aV":["@CameraRotateY",-3.2636796949691744],"cj":["#CamSinY",-0.0569311577],"ex":["#CamCosX",0.8747913561],"ck":["#CamCosY",0.9983781064],"=":["@CameraX",1962.9947475175702],"an":["@CameraY",460.7844874974125],"-":["@CameraZ",151.05423085691393],"?":["@FocalLength","310"],".":["#MinCameraDist","50"],"e[":["@LightAngle","-45"],"d)":["@CameraRotateZ","0"],"c(":["#CamCosZ",1],"c)":["#CamSinZ",0],"c*":["@Resolution","0"],"e]":["#LightX",0.5303300859],"e^":["#LightY","0.5"],"e_":["#LightZ",-0.5303300859],"/":["`TriangleDataPerInst","19"],"ey":["`NumberOfQuads",65],"bJ":["`TriangleCollPerInst","6"],"f,":["`TriangleDistAdd","130"],"c+":["#MaxDeltaTime","0.082"],"b]":["#FPS",16],"dq":["@EngineUseChunks","1"],"f-":["#chunkStartX","0"],"f.":["#chunkStartZ","0"],"d*":["#chunkSizeX","10"],"gQ":["#chunkSizeZ","10"],"ez":["#chunkSize","400"],"e`":["#currentChunkX",5],"e{":["#currentChunkZ",2],"c,":["#currentChunkValue",1],":":["^GD_Size","12"],"L":["^TD_Size","11"],"ae":["^SD_Size","12"],"aF":["^LD_Size","8"],"hj":["^PD_Size",0],"br":["^Load_D_Size","12"],"cM":["`MaxMaterials","10"],"e|":["@LightContrast","30"],"e}":["@LightAmbient","20"],"f/":["&PlayerIdle","1"],"gR":["&PlayerWalk",11],"f:":["&PlayerJumpIn",21],"gS":["&matPlayer","1"],"c":["-PlayerGameObjectID","1"],"cN":["-CameraMoveSpeed","125"],"f;":["-MovePowerOnSlippery","500"],"c-":["-PlayerMoveSpeed","300"],"B":["-PlayerRadius","55"],"P":["-PlayerYColOffset","55"],"c.":["-ShadowSpriteID","1"],"e~":["-StartX",2000],"fa":["-StartY",150],"fb":["-StartZ",800],"f=":["-VelSlip","3200"],"d+":["-VelSlowDown","200"],"a!":["!CollidingTriangle",39],"b^":["^AD_Size","5"],"eA":["-CurrentCheckPoint","0"],"dr":["-CheckPointState","1"],"hk":["&Coin",44],"hl":["&CoinMat",9],"f?":["&FinalCoin",41],"gT":["&FinalCoinMat",5],"fc":["-CheckPointX",3650],"fd":["-CheckPointY",1200],"fe":["-CheckPointZ",9100],"cO":["-CoinsScore","0"],"ff":["-MaxCoins","0"],"fg":["--Fast_MODE","0"],"ds":["-CheckPointAngle","0"],"f@":["`LineDistAdd","110"],"eB":["-SignSpriteID",2],"cP":["-signState","1"],"he":["-BalancePlatformDown","45"],"f[":["&Button",42],"f]":["&ButtonMat",9],"a]":["-cameraTriggerState","-1"],"d,":["-TriggerWait","1"],"f^":["-TriggerWatch","3"],"dt":["-currentActiveTrigger","0"],"f_":["-SnowTimer","0.08"],"eC":["-SnowInLevel",0],"a~":["-CurrentLevel_ID","-10"],"fh":["-SkyBoxName","1"],"f`":["&Boss_1_Idle",45],"gU":["&Boss_1_mat",11],"cQ":["-BossType","0"],"e":["-BossID","0"],"s":["-BossMoveType","1"],"n":["-BossState","0"],"f{":["&Boss_1_Walk",55],"gV":["&Boss_1_Attack",60],"gW":["&Boss_1_Charge",70],"@":["-BossX",3869.731705887558],"ak":["-BossY",352.4497221819779],"[":["-BossZ",4277.468312838894],"gX":["&Boss_1_Run",80],"fi":["&Boss_1_Bounce",85],"bY":["-CameraHasFocus","0"],"gY":["-CameraFocusX",4000],"gZ":["-CameraFocusY",349.6666631777771],"g0":["-CameraFocusZ",4000],"d-":["-CameraFocusState","0"],"du":["-SnowProjectileGravity","800"],"f|":["--IsCompiled",0],"g1":["&BoostCircle",44],"g2":["&BoostCircleMat",17],"dv":["&Boss_2_Idle",90],"fj":["&Boss_2_Walk",91],"g3":["&Boss_2_Mat",19],"fk":["&Boss_2_HandShoot",101],"g4":["&Boss_2_HandShootMat",23],"g5":["&Boss_2_HandPush",106],"g6":["&Boss_2_HandPushMat",25],"bg":["-BossGetID",3],"+":["-BossAngle","0"],"c/":["-BossState2","0"],"cl":["-BossHealth","0"],"c:":["-BossMoveCounter","0"],"eD":["-BossMaxHealth","0"],"dw":["-BossVisualHealth","0"],"fl":["-OldMusic","1"],"c;":["-CurrentMusic","1"],"g7":["-NumberOfLevelAttributes",3],"ao":["-BossSoundState","0"],"dx":["-SoundBuffer","0"],"f}":["&PlayerHoldRope",31],",":["--PauseGame","0"],"c=":["$JumpPressed","0"],"x":["--CanvasSizeX",240],"t":["--CanvasSizeY",180],"fm":["-ResetLength","0.75"],"dy":["-ResetState",0.7550000067567453],"bZ":["-ResetMode","0"],"f~":["&Boss_3_Idle",107],"eE":["--Loading","0"],"g8":["&Boss_3_Material",27],"ga":["&Boss_3_PrepJump",117],"fn":["&Boss_3_JumpIn",127],"eF":["&Boss_3_MouthOpen",132],"fo":["--Graphics","1"],"a#":["-LevelSelectScroll","0"],"b_":["--InGame","1"],"a%":["-MainMenuRoom","1"],"gb":["--StartLevel","-10"],"bh":["-LevelsUnlocked","1"],"b0":["-LevelToUnlock","1"],"bi":["-LevelsCompleted","0"],"aW":["-LevelMenuSelected","0"],"b`":["-NumberOfLevelData","9"],"ba":["-LevelMapHaveTarget","0"],"fp":["-LevelMapTarget","0"],"d.":["-TotalCoins",0],"b9":["-TimeTrialLevel","0"],"cm":["-TimeTrialTime","0"],"bs":["-TimeTrialWait","0"],"b!":["-TimeTrialFrozen","0"],"fq":["-TimeTrialSound",1],"w":["-TransitionScenes","0"],"G":["-TransitionSceneState",-0.20039999195085834],"aP":["-TimeTrialFinished","1"],"eG":["-IsNewRecord","1"],"d/":["-CrystalScoreNew","1"],"a(":["-SaveLoadIter",10],"bt":["-SaveLoadGetID",81],"b1":["-SaveLoadTemp","|~"],"c?":["-SaveLoadSecNum",49480],"a^":["-CurrentlySaveLoad","0"],"cJ":["Music Volume","100"],"bW":["SFX Volume","100"],"cn":["-InGameMenu","0"],"cR":["-deadState","0"],"fr":["$PausePressed","0"],"fs":["-CrystalScoreOld","0"],"bj":["-CrystalScoreEarned","0"],"d:":["-CoinsEarned","0"],"eH":["-CoinEarnedTimer","0"],"ft":["-CrystalGetState",1.0229999927105382],"gc":["-TotalMaximumCoins",458],"g9":["&FinalCoinMatStart",7],"fu":["-GameBackToStart","0"],"co":["-HiddenEndID","-1"],"fv":["-ReturnStartCount",0],"eI":["--CompletedGame","0"],"eJ":["--IsNewGame","1"],"eK":["--PerctangeCompleted",94],"aw":["--DEBUG_MODE",1],"f*":["☁ -BestTimes(1-4)","0808061510110601595764545901130455556162632402202102120615016258646257010808061510110601625464630113045555616263240220210212061501595464636201",true],"f+":["☁ -BestTimes(5-8)","0808061510110601635864626301080806151011060155555764565601080806151011060159636364636301",true],"e=":["(Best Time)",59.09],"e?":["(Current Level)","1"],"cL":["JoystickState","0"],"d;":["JoystickCenterX",-170],"a[":["JoystickVx",-322],"d=":["JoystickCenterY",-110],"bb":["JoystickVy",290],"dz":["JoystickMag",433.3405127610388],"b{":["JoystickSize","50"],"b[":["--MobileControls","0"],"d9":["!PlayerMovePower","1"],"d!":["JumpCenterX",170],"d#":["JumpCenterY",-110],"ev":["JoystickType","1"],"ew":["-DynamicCameraActive","0"],"c%":["-DynamicCameraState","0"],"gP":["☁ LevelsCompleted","2",true],"e@":["-CustomLevelData","0;0;400;10;10;01010101010101010101010101010101010101010101010101010101010101010101010101010101010101010101010101010101010101010101010101010101010101010101010101010101010101010101010101010101010101010101010101010101|~1959;1179;81;-33;-1;0;~sign;0;40;2;40;/;90;A, ,B, ,C, ,D, ,E, ,F, ,G,;|p;1;40;3;16;|~~0;1;8;2;72;16;2;72;16;2;64;8;2;64;8374352;1;-2;|0;1;16;2;72;24;2;72;24;2;64;16;2;64;8374352;1;-2;|0;1;24;2;72;32;2;72;32;2;64;24;2;64;8374352;1;-2;|0;1;32;2;72;40;2;72;40;2;64;32;2;64;8374352;1;-2;|0;1;40;2;72;48;2;72;48;2;64;40;2;64;8374352;1;-2;|0;1;48;2;72;56;2;72;56;2;64;48;2;64;8374352;1;-2;|0;1;56;2;72;64;2;72;64;2;64;56;2;64;8374352;1;-2;|0;1;64;2;72;72;2;72;72;2;64;64;2;64;8374352;1;-2;|0;1;64;2;64;72;2;64;72;2;56;64;2;56;8374352;1;-2;|0;1;64;2;56;72;2;56;72;2;48;64;2;48;8374352;1;-2;|0;1;64;2;48;72;2;48;72;2;40;64;2;40;8374352;1;-2;|0;1;64;2;40;72;2;40;72;2;32;64;2;32;8374352;1;-2;|0;1;64;2;32;72;2;32;72;2;24;64;2;24;8374352;1;-2;|0;1;64;2;24;72;2;24;72;2;16;64;2;16;8374352;1;-2;|0;1;56;2;24;64;2;24;64;2;16;56;2;16;8374352;1;-2;|0;1;48;2;24;56;2;24;56;2;16;48;2;16;8374352;1;-2;|0;1;64;2;16;72;2;16;72;2;8;64;2;8;8374352;1;-2;|0;1;56;2;16;64;2;16;64;2;8;56;2;8;8374352;1;-2;|0;1;48;2;16;56;2;16;56;2;8;48;2;8;8374352;1;-2;|0;1;40;2;24;48;2;24;48;2;16;40;2;16;8374352;1;-2;|0;1;40;2;16;48;2;16;48;2;8;40;2;8;8374352;1;-2;|0;1;32;2;16;40;2;16;40;2;8;32;2;8;8374352;1;-2;|0;1;24;2;16;32;2;16;32;2;8;24;2;8;8374352;1;-2;|0;1;16;2;16;24;2;16;24;2;8;16;2;8;8374352;1;-2;|0;1;8;2;16;16;2;16;16;2;8;8;2;8;8374352;1;-2;|0;1;8;2;24;16;2;24;16;2;16;8;2;16;8374352;1;-2;|0;1;8;2;32;16;2;32;16;2;24;8;2;24;8374352;1;-2;|0;1;8;2;40;16;2;40;16;2;32;8;2;32;8374352;1;-2;|0;1;8;2;48;16;2;48;16;2;40;8;2;40;8374352;1;-2;|0;1;8;2;56;16;2;56;16;2;48;8;2;48;8374352;1;-2;|0;1;8;2;64;16;2;64;16;2;56;8;2;56;8374352;1;-2;|0;1;16;2;64;24;2;64;24;2;56;16;2;56;8374352;1;-2;|0;1;24;2;64;32;2;64;32;2;56;24;2;56;8374352;1;-2;|0;1;32;2;64;40;2;64;40;2;56;32;2;56;8374352;1;-2;|0;1;40;2;64;48;2;64;48;2;56;40;2;56;8374352;1;-2;|0;1;48;2;64;56;2;64;56;2;56;48;2;56;8374352;1;-2;|0;1;56;2;64;64;2;64;64;2;56;56;2;56;8374352;1;-2;|0;1;56;2;56;64;2;56;64;2;48;56;2;48;8374352;1;-2;|0;1;56;2;48;64;2;48;64;2;40;56;2;40;8374352;1;-2;|0;1;56;2;40;64;2;40;64;2;32;56;2;32;8374352;1;-2;|0;1;56;2;32;64;2;32;64;2;24;56;2;24;8374352;1;-2;|0;1;32;2;24;40;2;24;40;2;16;32;2;16;8374352;1;-2;|0;1;24;2;24;32;2;24;32;2;16;24;2;16;8374352;1;-2;|0;1;16;2;24;24;2;24;24;2;16;16;2;16;8374352;1;-2;|0;1;16;2;32;24;2;32;24;2;24;16;2;24;8374352;1;-2;|0;1;16;2;40;24;2;40;24;2;32;16;2;32;8374352;1;-2;|0;1;16;2;48;24;2;48;24;2;40;16;2;40;8374352;1;-2;|0;1;16;2;56;24;2;56;24;2;48;16;2;48;8374352;1;-2;|0;1;24;2;56;32;2;56;32;2;48;24;2;48;8374352;1;-2;|0;1;24;2;48;32;2;48;32;2;40;24;2;40;8374352;1;-2;|0;1;24;2;40;32;2;40;32;2;32;24;2;32;8374352;1;-2;|0;1;24;2;32;32;2;32;32;2;24;24;2;24;8374352;1;-2;|0;1;32;2;56;40;2;56;40;2;48;32;2;48;8374352;1;-2;|0;1;40;2;56;48;2;56;48;2;48;40;2;48;8374352;1;-2;|0;1;48;2;56;56;2;56;56;2;48;48;2;48;8374352;1;-2;|0;1;32;2;48;40;2;48;40;2;40;32;2;40;8374352;1;-2;|0;1;40;2;48;48;2;48;48;2;40;40;2;40;8374352;1;-2;|0;1;48;2;48;56;2;48;56;2;40;48;2;40;8374352;1;-2;|0;1;48;2;40;56;2;40;56;2;32;48;2;32;8374352;1;-2;|la;1;48;2;32;48;2;24;56;2;24;56;2;32;16711680;2;2;|0;1;40;2;32;48;2;32;48;2;24;40;2;24;8374352;1;-2;|0;1;32;2;32;40;2;32;40;2;24;32;2;24;8374352;1;-2;|0;1;32;2;40;40;2;40;40;2;32;32;2;32;8374352;1;-2;|0;1;40;2;40;48;2;40;48;2;32;40;2;32;8374352;1;-2;|~"],"d%":["-getSignText",""]},"lists":{"cS":["#LayerValues",[3700.825976285266,3671.6900964104716,3559.459717058604,3537.8105788024604,3460.40384171976,3447.043433991166,3407.4968416393313,3402.9774433945995,3341.1744794699575,3308.7437964858927,3183.2011619959158,3158.8638671428416,3071.501850012552,3056.366437695292,3011.46298460371,3006.321388450077,2992.251722383041,2955.819440159452,2813.8183098523527,2786.0985882246578,2686.0274877850584,2668.594869677902,2658.503175194806,2617.186943731534,2616.6990803727845,2610.7394289487374,2454.591169428352,2422.532027050997,2346.7931097997725,2305.803277642151,2299.548865030272,2285.297496180167,2223.9235184247736,2216.842471061589,2111.0521168484697,2073.3338569942334,2067.7861276057474,2013.5566523042705,2005.283667055614,2001.2676503476368,1989.5534224882535,1934.1516808971076,1909.368056846595,1837.5884928831092,1834.5113920704416,1825.8050842334362,1792.9524570339747,1775.7913133581674,1747.834931142734,1678.1284978038289,1609.6865991860348,1577.6901161399803,1546.684180193863,1517.8956225310549,1463.5041241447832,1451.4395447327304,1440.1901649751085,1316.2114666982425,1252.085840654215,1251.0040397139169,1210.6652817117283,1082.389550062881,1066.7185559617324,988.7743834910609,935.4072484045698,752.8075463210992,728.5691587181586,707.3478635014034,700.0714249274855]],"b#":["#LayerIDs",[-15,-1,-13,-3,-11,-5,-9,-7,-17,-61,-73,-63,-71,-65,-69,-67,-19,-59,-75,-95,-109,-97,-21,-57,-107,-105,-77,-93,-23,-115,-55,-99,-113,-111,-79,-91,-25,-53,2,-129,1,-117,-101,-27,-127,-125,-81,-51,-89,-33,-49,-119,-103,-29,-87,-121,-123,-35,-47,-31,-85,-39,-83,-37,-45,-41,-43,1,1]],"fw":["#Vertex_X",[0,-11.16,11.16,0,0,0,34.64,-34.64,0,-19.119999999999997,-9.040000000000001,-29.2,-19.119999999999997,19.119999999999997,9.040000000000001,29.2,19.119999999999997,35.56,29.52,41.6,49.519999999999996,-35.56,-29.52,-41.6,-49.519999999999996,0,-11.16,11.16,0,0,0,34.64,-34.64,0,-19.119999999999997,-9.040000000000001,-29.2,-19.119999999999997,19.119999999999997,9.040000000000001,29.2,19.119999999999997,35.64,29.96,41.28,50.44,-35.64,-29.96,-41.28,-50.44,0,-11.16,11.16,0,0,0,34.64,-34.64,0,-19.119999999999997,-9.040000000000001,-29.2,-19.119999999999997,19.119999999999997,9.040000000000001,29.2,19.119999999999997,35.64,29.96,41.28,50.44,-35.64,-29.96,-41.28,-50.44,0,-11.16,11.16,0,0,0,34.64,-34.64,0,-19.119999999999997,-9.040000000000001,-29.2,-19.119999999999997,19.119999999999997,9.040000000000001,29.2,19.119999999999997,36.04,32.519999999999996,39,54.12,-36.04,-32.519999999999996,-39,-54.12,0,-11.16,11.16,0,0,0,34.64,-34.64,0,-19.119999999999997,-9.040000000000001,-29.2,-19.119999999999997,19.119999999999997,9.040000000000001,29.2,19.119999999999997,36.160000000000004,33.8,37.8,55.12,-36.160000000000004,-33.8,-37.8,-55.12,0,-11.16,11.16,0,0,0,34.64,-34.64,0,-19.119999999999997,-9.040000000000001,-29.2,-19.119999999999997,19.119999999999997,9.040000000000001,29.2,19.119999999999997,36.2,34.32,37.28,55.36,-36.2,-34.32,-37.28,-55.36,0,-11.16,11.16,0,0,0,34.64,-34.64,0,-19.119999999999997,-9.040000000000001,-29.2,-19.119999999999997,19.119999999999997,9.040000000000001,29.2,19.119999999999997,36.160000000000004,33.8,37.8,55.12,-36.160000000000004,-33.8,-37.8,-55.12,0,-11.16,11.16,0,0,0,34.64,-34.64,0,-19.119999999999997,-9.040000000000001,-29.2,-19.119999999999997,19.119999999999997,9.040000000000001,29.2,19.119999999999997,36.04,32.519999999999996,39,54.12,-36.04,-32.519999999999996,-39,-54.12,0,-11.16,11.16,0,0,0,34.64,-34.64,0,-19.119999999999997,-9.040000000000001,-29.2,-19.119999999999997,19.119999999999997,9.040000000000001,29.2,19.119999999999997,35.84,31.080000000000002,40.32,52.36,-35.84,-31.080000000000002,-40.32,-52.36,0,-11.16,11.16,0,0,0,34.64,-34.64,0,-19.119999999999997,-9.040000000000001,-29.2,-19.119999999999997,19.119999999999997,9.040000000000001,29.2,19.119999999999997,35.64,29.96,41.28,50.44,-35.64,-29.96,-41.28,-50.44,0,-11.16,11.16,0,0,0,34.64,-34.64,0,-19.119999999999997,-9.040000000000001,-29.2,-19.119999999999997,19.119999999999997,9.040000000000001,29.2,19.119999999999997,35.56,29.52,41.6,49.519999999999996,-35.56,-29.52,-41.6,-49.519999999999996,0,-11.16,11.16,0,0,0,34.64,-34.64,0,-19.119999999999997,-9.040000000000001,-29.2,-19.119999999999997,19.119999999999997,9.040000000000001,29.2,19.119999999999997,35.56,29.52,41.6,49.519999999999996,-35.56,-29.52,-41.6,-49.519999999999996,0,-11.16,11.16,0,0,0,34.64,-34.64,0,-19.119999999999997,-9.040000000000001,-29.2,-19.119999999999997,19.119999999999997,9.040000000000001,29.2,19.119999999999997,35.56,29.52,41.6,49.519999999999996,-35.56,-29.52,-41.6,-49.519999999999996,0,-11.16,11.16,0,0,0,34.64,-34.64,0,-19.119999999999997,-9.040000000000001,-29.2,-19.119999999999997,19.119999999999997,9.040000000000001,29.2,19.119999999999997,35.56,29.52,41.6,49.519999999999996,-35.56,-29.52,-41.6,-49.519999999999996,0,-11.16,11.16,0,0,0,34.64,-34.64,0,-19.119999999999997,-9.040000000000001,-29.2,-19.119999999999997,19.119999999999997,9.040000000000001,29.2,19.119999999999997,35.56,29.52,41.6,49.519999999999996,-35.56,-29.52,-41.6,-49.519999999999996,0,-11.16,11.16,0,0,0,34.64,-34.64,0,-19.119999999999997,-9.040000000000001,-29.2,-19.119999999999997,19.119999999999997,9.040000000000001,29.2,19.119999999999997,35.56,29.52,41.6,49.519999999999996,-35.56,-29.52,-41.6,-49.519999999999996,0,-11.16,11.16,0,0,0,34.64,-34.64,0,-19.119999999999997,-9.040000000000001,-29.2,-19.119999999999997,19.119999999999997,9.040000000000001,29.2,19.119999999999997,35.56,29.52,41.6,49.519999999999996,-35.56,-29.52,-41.6,-49.519999999999996,0,-11.16,11.16,0,0,0,34.64,-34.64,0,-19.119999999999997,-9.040000000000001,-29.2,-19.119999999999997,19.119999999999997,9.040000000000001,29.2,19.119999999999997,35.56,29.52,41.6,49.519999999999996,-35.56,-29.52,-41.6,-49.519999999999996,0,-11.16,11.16,0,0,0,34.64,-34.64,0,-19.119999999999997,-9.040000000000001,-29.2,-19.119999999999997,19.119999999999997,9.040000000000001,29.2,19.119999999999997,35.56,29.52,41.6,49.519999999999996,-35.56,-29.52,-41.6,-49.519999999999996,0,-11.16,11.16,0,0,0,34.64,-34.64,0,-19.119999999999997,-9.040000000000001,-29.2,-19.119999999999997,19.119999999999997,9.040000000000001,29.2,19.119999999999997,35.56,29.52,41.6,49.519999999999996,-35.56,-29.52,-41.6,-49.519999999999996,0,-11.16,11.16,0,0,0,34.64,-34.64,0,-19.119999999999997,-9.040000000000001,-29.2,-19.119999999999997,19.119999999999997,9.040000000000001,29.2,19.119999999999997,35.56,29.52,41.6,49.519999999999996,-35.56,-29.52,-41.6,-49.519999999999996,0,-11.16,11.16,0,0,0,34.64,-34.64,0,-19.119999999999997,-9.040000000000001,-29.2,-19.119999999999997,19.119999999999997,9.040000000000001,29.2,19.119999999999997,35.6,29.8,41.4,50.12,-35.6,-29.8,-41.4,-50.12,0,-11.16,11.16,0,0,0,34.64,-34.64,0,-19.119999999999997,-9.040000000000001,-29.2,-19.119999999999997,19.119999999999997,9.040000000000001,29.2,19.119999999999997,35.68,30.64,40.76,51.6,-35.68,-30.64,-40.76,-51.6,0,-11.16,11.16,0,0,0,34.64,-34.64,0,-19.119999999999997,-9.040000000000001,-29.2,-19.119999999999997,19.119999999999997,9.040000000000001,29.2,19.119999999999997,35.8,32,39.64,53.52,-35.8,-32,-39.64,-53.52,0,-11.16,11.16,0,0,0,34.64,-34.64,0,-19.119999999999997,-9.040000000000001,-29.2,-19.119999999999997,19.119999999999997,9.040000000000001,29.2,19.119999999999997,35.92,33.839999999999996,38,55.08,-35.92,-33.839999999999996,-38,-55.08,0,-11.16,11.16,0,0,0,34.64,-34.64,0,-19.119999999999997,-9.040000000000001,-29.2,-19.119999999999997,19.119999999999997,9.040000000000001,29.2,19.119999999999997,35.92,35.92,35.92,55.67999999999999,-35.92,-35.92,-35.92,-55.67999999999999,0,-11.16,11.16,0,0,0,34.64,-34.64,0,-19.119999999999997,-9.040000000000001,-29.2,-19.119999999999997,19.119999999999997,9.040000000000001,29.2,19.119999999999997,35.88,37.92,33.8,55.03999999999999,-35.88,-37.92,-33.8,-55.03999999999999,0,-11.16,11.16,0,0,0,34.64,-34.64,0,-19.119999999999997,-9.040000000000001,-29.2,-19.119999999999997,19.119999999999997,9.040000000000001,29.2,19.119999999999997,35.72,39.56,31.92,53.4,-35.72,-39.56,-31.92,-53.4,0,-11.16,11.16,0,0,0,34.64,-34.64,0,-19.119999999999997,-9.040000000000001,-29.2,-19.119999999999997,19.119999999999997,9.040000000000001,29.2,19.119999999999997,35.6,40.64,30.52,51.52,-35.6,-40.64,-30.52,-51.52,0,-11.16,11.16,0,0,0,34.64,-34.64,0,-19.119999999999997,-9.040000000000001,-29.2,-19.119999999999997,19.119999999999997,9.040000000000001,29.2,19.119999999999997,35.480000000000004,41.28,29.68,50,-35.480000000000004,-41.28,-29.68,-50,0,-11.16,11.16,0,0,0,34.64,-34.64,0,-19.119999999999997,-9.040000000000001,-29.2,-19.119999999999997,19.119999999999997,9.040000000000001,29.2,19.119999999999997,35.92,35.92,35.92,55.67999999999999,-35.92,-35.92,-35.92,-55.67999999999999,0,-11.16,11.16,0,0,0,34.64,-34.64,0,-19.119999999999997,-9.040000000000001,-29.2,-19.119999999999997,19.119999999999997,9.040000000000001,29.2,19.119999999999997,35.16,35.56,34.76,54.88,-35.16,-35.56,-34.72,-54.88,0,-11.16,11.16,0,0,0,34.64,-34.64,0,-19.119999999999997,-9.040000000000001,-29.2,-19.119999999999997,19.119999999999997,9.040000000000001,29.2,19.119999999999997,33.16,34.72,31.6,52.599999999999994,-33.12,-34.64,-31.560000000000002,-52.56,0,-11.16,11.16,0,0,0,34.64,-34.64,0,-19.119999999999997,-9.040000000000001,-29.2,-19.119999999999997,19.119999999999997,9.040000000000001,29.2,19.119999999999997,30.48,33.8,27.12,48.64,-30.36,-33.6,-27.080000000000002,-48.6,0,-11.16,11.16,0,0,0,34.64,-34.64,0,-19.119999999999997,-9.040000000000001,-29.2,-19.119999999999997,19.119999999999997,9.040000000000001,29.2,19.119999999999997,27.480000000000004,32.92,22.080000000000002,42.800000000000004,-27.32,-32.599999999999994,-21.96,-42.800000000000004,0,-11.16,11.16,0,0,0,34.64,-34.64,0,-19.119999999999997,-9.040000000000001,-29.2,-19.119999999999997,19.119999999999997,9.040000000000001,29.2,19.119999999999997,24.4,31.68,17.2,34.92,-24.119999999999997,-31.240000000000002,-17,-35.04,0,-11.16,11.16,0,0,0,34.64,-34.64,0,-19.119999999999997,-9.040000000000001,-29.2,-19.119999999999997,19.119999999999997,9.040000000000001,29.2,19.119999999999997,21.44,29.8,13.16,26.080000000000002,-21,-29.32,-12.84,-26.28,0,-11.16,11.16,0,0,0,34.64,-34.64,0,-19.119999999999997,-9.040000000000001,-29.2,-19.119999999999997,19.119999999999997,9.040000000000001,29.2,19.119999999999997,18.84,27.44,10.36,17.88,-18.2,-26.92,-9.84,-18.16,0,-11.16,11.16,0,0,0,34.64,-34.64,0,-19.119999999999997,-9.040000000000001,-29.2,-19.119999999999997,19.119999999999997,9.040000000000001,29.2,19.119999999999997,16.8,25.12,8.6,11.639999999999999,-16,-24.6,-7.92,-11.84,0,-11.16,11.16,0,0,0,34.64,-34.64,0,-19.119999999999997,-9.040000000000001,-29.2,-19.119999999999997,19.119999999999997,9.040000000000001,29.2,19.119999999999997,15.48,23.4,7.68,7.76,-14.6,-22.88,-6.879999999999999,-7.880000000000001,0,37.72,-18.84,-18.84,0,37.72,-18.84,-18.84,16.88,-2.3200000000000003,49.64,53.08,16.88,-2.3200000000000003,49.64,53.08,16.68,-4.28,49.96000000000001,49.92,-89.80000000000001,-44.12,-44.76,-27.68,40,40,-40,-40,-40,-40,40,40,40,40,-40,-40,-58.32,-58.32,58.32,58.32,0,0,-97.7,-77.2,-121.9,-96.3,-54.2,-42.9,54.2,42.9,121.9,96.3,97.7,77.2,-100,-74.6,100,74.6,-100,-81.89999999999999,100,81.89999999999999,70.6,48.3,92.9,70.6,-70.6,-48.3,-92.9,-70.6,0,0,-74.6,74.6,0,0,47.3,39.2,15.7,-47.3,-39.2,-15.7,-76.1,-55.900000000000006,76.1,-45.7,45.7,-45.7,45.7,55.900000000000006,-56.10000000000001,-35.9,56.10000000000001,-25.7,25.7,-25.7,25.7,35.9,-1.6,21.9,-20.5,-2.7,12.9,-16.8,-100,-74.6,100,74.6,-97.7,-81.89999999999999,97.8,81.89999999999999,70.19999999999999,48.4,92.80000000000001,76.8,-70.19999999999999,-48.4,-92.80000000000001,-76.8,0,0,-74.6,74.6,0,0,47.3,39.300000000000004,15.7,-47.3,-39.2,-15.7,-76.1,-55.900000000000006,76.1,-45.7,45.7,-45.7,45.7,55.900000000000006,-56.10000000000001,-35.9,56.10000000000001,-25.7,25.7,-25.7,25.7,35.9,-1.6,21.9,-20.5,-2.6,13,-16.7,-100,-74.6,100,74.6,-92.4,-81.89999999999999,92.4,81.89999999999999,69.39999999999999,48.8,92.5,88.3,-69.39999999999999,-48.8,-92.5,-88.3,0,0,-74.6,74.6,0,0,47.3,39.300000000000004,15.7,-47.3,-39.2,-15.7,-76.1,-55.900000000000006,76.1,-45.7,45.7,-45.7,45.7,55.900000000000006,-56.10000000000001,-35.9,56.10000000000001,-25.7,25.8,-25.7,25.8,35.9,-1.5,21.8,-20.599999999999998,-2.4,13.100000000000001,-16.6,-100,-74.5,100,74.6,-85.9,-81.89999999999999,86.1,81.89999999999999,69,49.2,92.2,94.39999999999999,-69,-49.2,-92.2,-94.3,0,0,-74.5,74.6,0,0,47.3,39.300000000000004,15.7,-47.199999999999996,-39.2,-15.7,-76.1,-55.900000000000006,76.1,-45.7,45.7,-45.7,45.7,55.900000000000006,-56.10000000000001,-35.8,56.10000000000001,-25.7,25.8,-25.7,25.8,35.9,-1.3,21.7,-20.7,-2.1999999999999997,13.200000000000001,-16.5,-100,-74.5,100,74.6,-85.9,-81.89999999999999,86.1,81.89999999999999,69,49.2,92.2,94.39999999999999,-69,-49.2,-92.2,-94.3,0,0,-74.5,74.6,0,0,47.3,39.300000000000004,15.7,-47.199999999999996,-39.2,-15.7,-76.1,-55.900000000000006,76.1,-45.7,45.7,-45.7,45.7,55.900000000000006,-56.10000000000001,-35.8,56.10000000000001,-25.7,25.8,-25.7,25.8,35.9,-1.3,21.7,-20.7,-2.1999999999999997,13.200000000000001,-16.5,-100,-74.5,100,74.6,-78.3,-81.89999999999999,78.5,81.89999999999999,70.6,48.3,92.9,70.7,-70.6,-48.3,-92.80000000000001,-70.5,0,0,-74.5,74.6,0,0,47.3,39.300000000000004,15.8,-47.199999999999996,-39.2,-15.7,-76.1,-55.900000000000006,76.1,-45.7,45.7,-45.7,45.7,55.900000000000006,-56.10000000000001,-35.8,56.10000000000001,-25.7,25.8,-25.7,25.8,35.9,-1.0999999999999999,21.6,-20.8,-2,13.4,-16.400000000000002,-100,-74.5,100,74.6,-80.60000000000001,-81.89999999999999,80.7,81.89999999999999,70.6,48.3,92.9,70.6,-70.6,-48.3,-92.80000000000001,-70.5,0,0,-74.5,74.6,0,0,47.3,39.300000000000004,15.8,-47.199999999999996,-39.2,-15.7,-76.1,-55.900000000000006,76.1,-45.7,45.7,-45.7,45.7,55.900000000000006,-56.10000000000001,-35.8,56.10000000000001,-25.7,25.8,-25.7,25.8,35.9,-1.2,21.7,-20.8,-2.1,13.3,-16.400000000000002,-100,-74.5,100,74.6,-85.9,-81.89999999999999,86.1,81.89999999999999,70.6,48.3,92.9,70.6,-70.6,-48.3,-92.80000000000001,-70.5,0,0,-74.5,74.6,0,0,47.3,39.300000000000004,15.7,-47.199999999999996,-39.2,-15.7,-76.1,-55.900000000000006,76.1,-45.7,45.7,-45.7,45.7,55.900000000000006,-56.10000000000001,-35.8,56.10000000000001,-25.7,25.8,-25.7,25.8,35.9,-1.3,21.7,-20.7,-2.1999999999999997,13.200000000000001,-16.5,-100,-74.6,100,74.6,-92.4,-81.89999999999999,92.4,81.89999999999999,70.6,48.3,92.9,70.6,-70.6,-48.3,-92.9,-70.6,0,0,-74.6,74.6,0,0,47.3,39.300000000000004,15.7,-47.3,-39.2,-15.7,-76.1,-55.900000000000006,76.1,-45.7,45.7,-45.7,45.7,55.900000000000006,-56.10000000000001,-35.9,56.10000000000001,-25.7,25.8,-25.7,25.8,35.9,-1.5,21.8,-20.599999999999998,-2.4,13.100000000000001,-16.6,-100,-74.6,100,74.6,-97.7,-81.89999999999999,97.8,81.89999999999999,70.6,48.3,92.9,70.6,-70.6,-48.3,-92.9,-70.6,0,0,-74.6,74.6,0,0,47.3,39.300000000000004,15.7,-47.3,-39.2,-15.7,-76.1,-55.900000000000006,76.1,-45.7,45.7,-45.7,45.7,55.900000000000006,-56.10000000000001,-35.9,56.10000000000001,-25.7,25.7,-25.7,25.7,35.9,-1.6,21.9,-20.5,-2.6,13,-16.7,-100,-74.6,100,74.6,-107.5,-81.89999999999999,100.89999999999999,81.89999999999999,70.6,48.3,92.9,70.6,-70.6,-48.3,-92.9,-70.6,0,0,-74.6,74.6,0,0,47.3,39.300000000000004,15.7,-47.3,-39.2,-15.7,-76.1,-55.900000000000006,76.1,-45.7,45.7,-45.7,45.7,55.900000000000006,-56.10000000000001,-35.9,56.10000000000001,-25.7,26,-25.7,25.5,35.8,0.3,33.2,-32.2,-0.7000000000000001,22.400000000000002,-23.400000000000002,-100,-74.6,100,74.6,-102.89999999999999,-81.89999999999999,105.4,81.89999999999999,70.6,48.3,92.9,70.6,-70.6,-48.3,-92.9,-70.6,0,0,-74.6,74.6,0,0,47.3,39.300000000000004,15.7,-47.3,-39.2,-15.7,-76.1,-55.900000000000006,76.1,-45.7,45.7,-45.7,45.7,55.900000000000006,-56.10000000000001,-35.9,56.10000000000001,-25.7,27.6,-25.7,24.099999999999998,35.699999999999996,0.3,33.2,-32.2,-0.7000000000000001,22.400000000000002,-23.400000000000002,-100,-74.6,100,74.6,-100,-81.89999999999999,108.3,81.89999999999999,70.6,48.3,92.9,70.6,-70.6,-48.3,-92.9,-70.6,0,0,-74.6,74.6,0,0,47.3,39.300000000000004,15.7,-47.3,-39.2,-15.7,-76.1,-55.900000000000006,76.1,-45.7,45.7,-45.7,45.7,55.900000000000006,-56.10000000000001,-35.9,56.00000000000001,-25.7,28.599999999999998,-25.7,23.3,36.1,0.3,33.2,-32.2,-0.7000000000000001,22.400000000000002,-23.400000000000002,-100,-74.6,100,74.6,-100.89999999999999,-81.89999999999999,107.5,81.89999999999999,70.6,48.3,92.9,70.6,-70.6,-48.3,-92.9,-70.6,0,0,-74.6,74.6,0,0,47.3,39.300000000000004,15.7,-47.3,-39.2,-15.7,-76.1,-55.900000000000006,76.1,-45.7,45.7,-45.7,45.7,55.900000000000006,-56.10000000000001,-35.9,56.00000000000001,-25.7,28.299999999999997,-25.7,23.5,35.9,0.3,33.2,-32.2,-0.7000000000000001,22.400000000000002,-23.400000000000002,-100,-74.6,100,74.6,-105.4,-81.89999999999999,102.89999999999999,81.89999999999999,70.6,48.3,92.9,70.6,-70.6,-48.3,-92.9,-70.6,0,0,-74.6,74.6,0,0,47.3,39.300000000000004,15.7,-47.3,-39.2,-15.7,-76.1,-55.900000000000006,76.1,-45.7,45.7,-45.7,45.7,55.900000000000006,-56.10000000000001,-35.9,56.10000000000001,-25.7,26.8,-25.7,24.9,35.6,0.3,33.2,-32.2,-0.7000000000000001,22.400000000000002,-23.400000000000002,-100,-74.6,100,74.6,-100,-81.89999999999999,100,81.89999999999999,70.6,48.3,92.9,70.6,-70.6,-48.3,-92.9,-70.6,0,0,-74.6,74.6,0,0,47.3,39.2,15.7,-47.3,-39.2,-15.7,-76.1,-55.900000000000006,76.1,-45.7,45.7,-45.7,45.7,55.900000000000006,-56.10000000000001,-35.9,56.10000000000001,-25.7,25.7,-25.7,25.7,35.9,-0.2,21.099999999999998,-21.3,-0.8999999999999999,14.099999999999998,-15.7,-99.4,-74.1,99.4,74.1,-100,-81.89999999999999,100,81.89999999999999,70.19999999999999,48,92.30000000000001,70.19999999999999,-70.19999999999999,-48,-92.30000000000001,-70.19999999999999,0,0,-74.1,74.1,0,0,47,39,15.6,-47,-39,-15.6,-76.1,-55.900000000000006,76.1,-45.7,45.7,-45.7,45.7,55.900000000000006,-55.800000000000004,-35.6,55.800000000000004,-25.6,25.6,-25.6,25.6,35.6,-0.4,21.2,-21.2,-1.0999999999999999,13.900000000000002,-15.8,-97.89999999999999,-73,97.89999999999999,73,-100,-81.89999999999999,100,81.89999999999999,69.1,47.3,90.9,69.1,-69.1,-47.3,-90.9,-69.1,0,0,-73,73,0,0,46.300000000000004,38.4,15.4,-46.300000000000004,-38.4,-15.4,-76.1,-55.900000000000006,76.1,-45.7,45.7,-45.7,45.7,55.900000000000006,-54.900000000000006,-35.099999999999994,54.900000000000006,-25.2,25.2,-25.2,25.2,35.099999999999994,-0.7000000000000001,21.4,-21,-1.5,13.700000000000001,-16.1,-96.2,-71.7,96.2,71.7,-100,-81.89999999999999,100,81.89999999999999,67.9,46.5,89.3,67.9,-67.9,-46.5,-89.3,-67.9,0,0,-71.7,71.7,0,0,45.5,37.8,15.1,-45.5,-37.8,-15.1,-76.1,-55.900000000000006,76.1,-45.7,45.7,-45.7,45.7,55.900000000000006,-54,-34.5,54,-24.8,24.8,-24.8,24.8,34.5,-1.2,21.6,-20.8,-2.1,13.3,-16.400000000000002,-94.69999999999999,-70.7,94.69999999999999,70.7,-100,-81.89999999999999,100,81.89999999999999,66.9,45.800000000000004,88,66.9,-66.9,-45.800000000000004,-88,-66.9,0,0,-70.7,70.7,0,0,44.800000000000004,37.2,14.899999999999999,-44.800000000000004,-37.2,-14.899999999999999,-76.1,-55.900000000000006,76.1,-45.7,45.7,-45.7,45.7,55.900000000000006,-53.2,-33.900000000000006,53.2,-24.4,24.4,-24.4,24.4,34,-1.5,21.8,-20.599999999999998,-2.5,13.100000000000001,-16.7,-94.1,-70.19999999999999,94.1,70.19999999999999,-100,-81.89999999999999,100,81.89999999999999,66.4,45.5,87.4,66.4,-66.4,-45.5,-87.4,-66.4,0,0,-70.19999999999999,70.19999999999999,0,0,44.5,36.9,14.799999999999999,-44.5,-36.9,-14.799999999999999,-76.1,-55.900000000000006,76.1,-45.7,45.7,-45.7,45.7,55.900000000000006,-52.800000000000004,-33.7,52.800000000000004,-24.2,24.2,-24.2,24.2,33.800000000000004,-1.6,21.9,-20.5,-2.7,12.9,-16.8,-94.1,-70.19999999999999,94.1,70.19999999999999,-100,-81.89999999999999,100,81.89999999999999,66.4,45.5,87.4,66.4,-66.4,-45.5,-87.4,-66.4,0,0,-70.19999999999999,70.19999999999999,0,0,44.5,36.9,14.799999999999999,-44.5,-36.9,-14.799999999999999,-76.1,-55.900000000000006,76.1,-45.7,45.7,-45.7,45.7,55.900000000000006,-52.800000000000004,-33.7,52.800000000000004,-24.3,24.3,-24.2,24.2,33.800000000000004,-1.6,21.9,-20.5,-2.7,12.9,-16.8,-94.1,-70.19999999999999,94.1,70.19999999999999,-100,-81.89999999999999,100,81.89999999999999,66.4,45.5,87.4,66.4,-66.4,-45.5,-87.4,-66.4,0,0,-70.19999999999999,70.19999999999999,0,0,44.5,36.9,14.799999999999999,-44.5,-36.9,-14.799999999999999,-76.1,-55.900000000000006,76.1,-45.7,45.7,-45.7,45.7,55.900000000000006,-52.800000000000004,-33.7,52.800000000000004,-24.3,24.3,-24.2,24.2,33.800000000000004,-1.6,21.9,-20.5,-2.7,12.9,-16.8,-95.7,-71.3,95.7,71.3,-100,-81.89999999999999,100,81.89999999999999,67.5,46.2,88.8,67.5,-67.5,-46.2,-88.8,-67.5,0,0,-71.3,71.3,0,0,45.2,37.5,15,-45.2,-37.5,-15,-76.1,-55.900000000000006,76.1,-45.7,45.7,-45.7,45.7,55.900000000000006,-53.7,-34.300000000000004,53.7,-24.7,24.7,-24.6,24.6,34.300000000000004,-1.3,21.7,-20.7,-2.1999999999999997,13.200000000000001,-16.5,-98.5,-73.4,98.5,73.4,-100,-81.89999999999999,100,81.89999999999999,69.5,47.599999999999994,91.5,69.5,-69.5,-47.599999999999994,-91.5,-69.5,0,0,-73.4,73.4,0,0,46.6,38.7,15.5,-46.6,-38.7,-15.5,-76.1,-55.900000000000006,76.1,-45.7,45.7,-45.7,45.7,55.900000000000006,-55.300000000000004,-35.3,55.300000000000004,-25.4,25.4,-25.3,25.3,35.3,-0.6,21.3,-21.099999999999998,-1.4000000000000001,13.8,-16,-99.9,-74.5,100.1,74.6,-100,-81.89999999999999,100,81.89999999999999,70.6,48.4,92.9,70.7,-70.5,-48.3,-92.80000000000001,-70.5,0.1,0.1,-74.5,74.6,0.1,0.1,47.4,39.300000000000004,15.8,-47.199999999999996,-39.2,-15.6,-76.1,-55.900000000000006,76.1,-45.7,45.7,-45.7,45.7,55.900000000000006,-56.10000000000001,-35.8,56.10000000000001,-25.7,25.6,-25.7,25.900000000000002,37.3,-1.6,21.9,-20.5,-2.7,12.9,-16.8,-100.6,-75,100.69999999999999,75.1,-97.7,-81.89999999999999,97.8,81.89999999999999,70.7,48.8,93.5,77.4,-70.6,-48.6,-93.4,-77.2,0.1,0.1,-75,75.1,0.1,0.1,47.699999999999996,39.6,15.9,-47.5,-39.4,-15.7,-76.1,-55.900000000000006,76.1,-45.7,45.7,-45.7,45.7,55.900000000000006,-56.39999999999999,-36.1,56.49999999999999,-25.900000000000002,25.8,-25.900000000000002,26,37.4,-1.6,21.9,-20.5,-2.6,13,-16.7,-102.2,-76.2,102.3,76.3,-92.4,-81.89999999999999,92.4,81.89999999999999,71,50,94.69999999999999,90.4,-70.89999999999999,-49.8,-94.5,-90.2,0.1,0.1,-76.2,76.3,0.1,0.1,48.4,40.2,16.1,-48.199999999999996,-40,-16,-76.1,-55.900000000000006,76.1,-45.7,45.7,-45.7,45.7,55.900000000000006,-57.3,-36.6,57.4,-26.3,26.3,-26.3,26.400000000000002,37.7,-1.5,21.8,-20.599999999999998,-2.4,13.100000000000001,-16.6,-104.1,-77.60000000000001,104.2,77.7,-85.9,-81.89999999999999,86.1,81.89999999999999,71.89999999999999,51.300000000000004,96.1,98.4,-71.8,-51.2,-96,-98.2,0.1,0.1,-77.60000000000001,77.7,0.1,0.1,49.3,41,16.400000000000002,-49.1,-40.8,-16.3,-76.1,-55.900000000000006,76.1,-45.7,45.7,-45.7,45.7,55.900000000000006,-58.4,-37.3,58.4,-26.8,26.8,-26.700000000000003,26.8,37.9,-1.3,21.7,-20.7,-2.1999999999999997,13.200000000000001,-16.5,-105.60000000000001,-78.8,105.80000000000001,78.9,-80.60000000000001,-81.89999999999999,80.7,81.89999999999999,73.1,52,97.6,98.5,-73,-51.800000000000004,-97.5,-98.3,0.1,0.1,-78.8,78.9,0.1,0.1,50.1,41.6,16.7,-49.9,-41.4,-16.5,-76.1,-55.900000000000006,76.1,-45.7,45.7,-45.7,45.7,55.900000000000006,-59.3,-37.9,59.3,-27.200000000000003,27.3,-27.200000000000003,27.200000000000003,38.1,-1.2,21.7,-20.8,-2.1,13.3,-16.400000000000002,-106.3,-79.3,106.4,79.4,-78.3,-81.89999999999999,78.5,81.89999999999999,73.8,52.1,98.4,95.6,-73.7,-51.9,-98.3,-95.3,0.1,0.1,-79.3,79.4,0.1,0.1,50.4,41.8,16.8,-50.2,-41.699999999999996,-16.6,-76.1,-55.900000000000006,76.1,-45.7,45.7,-45.7,45.7,55.900000000000006,-59.599999999999994,-38.1,59.699999999999996,-27.3,27.400000000000002,-27.3,27.400000000000002,38.2,-1.0999999999999999,21.6,-20.8,-2,13.4,-16.400000000000002,-105.60000000000001,-78.8,105.80000000000001,78.9,-80.60000000000001,-81.89999999999999,80.7,81.89999999999999,73.6,51.5,98,90.10000000000001,-73.5,-51.4,-97.89999999999999,-89.9,0.1,0.1,-78.8,78.9,0.1,0.1,50.1,41.6,16.7,-49.9,-41.4,-16.5,-76.1,-55.900000000000006,76.1,-45.7,45.7,-45.7,45.7,55.900000000000006,-59.3,-37.9,59.3,-27.200000000000003,27.3,-27.200000000000003,27.200000000000003,38.1,-1.2,21.7,-20.8,-2.1,13.3,-16.400000000000002,-104.1,-77.60000000000001,104.2,77.7,-85.9,-81.89999999999999,86.1,81.89999999999999,72.89999999999999,50.5,96.7,83.39999999999999,-72.8,-50.4,-96.6,-83.2,0.1,0.1,-77.60000000000001,77.7,0.1,0.1,49.3,41,16.400000000000002,-49.1,-40.8,-16.3,-76.1,-55.900000000000006,76.1,-45.7,45.7,-45.7,45.7,55.900000000000006,-58.4,-37.3,58.4,-26.8,26.8,-26.700000000000003,26.8,37.9,-1.3,21.7,-20.7,-2.1999999999999997,13.200000000000001,-16.5,-102.2,-76.2,102.3,76.3,-92.4,-81.89999999999999,92.4,81.89999999999999,71.89999999999999,49.5,95,77.10000000000001,-71.8,-49.4,-94.89999999999999,-76.9,0.1,0.1,-76.2,76.3,0.1,0.1,48.4,40.2,16.1,-48.199999999999996,-40,-16,-76.1,-55.900000000000006,76.1,-45.7,45.7,-45.7,45.7,55.900000000000006,-57.3,-36.6,57.4,-26.3,26.3,-26.3,26.400000000000002,37.7,-1.5,21.8,-20.599999999999998,-2.4,13.100000000000001,-16.6,-100.6,-75,100.69999999999999,75.1,-97.7,-81.89999999999999,97.8,81.89999999999999,71,48.699999999999996,93.5,72.5,-70.89999999999999,-48.6,-93.4,-72.3,0.1,0.1,-75,75.1,0.1,0.1,47.699999999999996,39.6,15.9,-47.5,-39.4,-15.7,-76.1,-55.900000000000006,76.1,-45.7,45.7,-45.7,45.7,55.900000000000006,-56.39999999999999,-36.1,56.49999999999999,-25.900000000000002,25.8,-25.900000000000002,26,37.4,-1.6,21.9,-20.5,-2.6,13,-16.7,-98.5,-73.4,98.5,73.5,-107.5,-81.89999999999999,100.89999999999999,81.89999999999999,69.5,47.599999999999994,91.5,69.5,-69.5,-47.599999999999994,-91.4,-69.5,0,0,-73.4,73.5,0,0,46.6,38.7,15.5,-46.5,-38.6,-15.5,-76.1,-55.900000000000006,76.1,-45.7,45.7,-45.7,45.7,55.900000000000006,-55.2,-35.3,55.300000000000004,-25.3,25.6,-25.3,25.1,35.199999999999996,0.3,33.2,-32.2,-0.7000000000000001,22.400000000000002,-23.400000000000002,-98.5,-73.4,98.5,73.5,-102.89999999999999,-81.89999999999999,105.4,81.89999999999999,69.5,47.599999999999994,91.5,69.5,-69.5,-47.599999999999994,-91.4,-69.5,0,0,-73.4,73.5,0,0,46.6,38.7,15.5,-46.5,-38.6,-15.5,-76.1,-55.900000000000006,76.1,-45.7,45.7,-45.7,45.7,55.900000000000006,-55.2,-35.3,55.2,-25.3,27.200000000000003,-25.3,23.7,35.099999999999994,0.3,33.2,-32.2,-0.7000000000000001,22.400000000000002,-23.400000000000002,-98.5,-73.4,98.5,73.5,-100,-81.89999999999999,108.3,81.89999999999999,69.5,47.599999999999994,91.5,69.5,-69.5,-47.599999999999994,-91.4,-69.5,0,0,-73.4,73.5,0,0,46.6,38.7,15.5,-46.5,-38.6,-15.5,-76.1,-55.900000000000006,76.1,-45.7,45.7,-45.7,45.7,55.900000000000006,-55.2,-35.3,55.1,-25.3,28.199999999999996,-25.3,22.900000000000002,35.6,0.3,33.2,-32.2,-0.7000000000000001,22.400000000000002,-23.400000000000002,-98.5,-73.4,98.5,73.5,-102.89999999999999,-81.89999999999999,105.4,81.89999999999999,69.5,47.599999999999994,91.5,69.5,-69.5,-47.599999999999994,-91.4,-69.5,0,0,-73.4,73.5,0,0,46.6,38.7,15.5,-46.5,-38.6,-15.5,-76.1,-55.900000000000006,76.1,-45.7,45.7,-45.7,45.7,55.900000000000006,-55.2,-35.3,55.2,-25.3,27.200000000000003,-25.3,23.7,35.099999999999994,0.3,33.2,-32.2,-0.7000000000000001,22.400000000000002,-23.400000000000002,-98.5,-73.4,98.5,73.5,-107.5,-81.89999999999999,100.89999999999999,81.89999999999999,69.5,47.599999999999994,91.5,69.5,-69.5,-47.599999999999994,-91.4,-69.5,0,0,-73.4,73.5,0,0,46.6,38.7,15.5,-46.5,-38.6,-15.5,-76.1,-55.900000000000006,76.1,-45.7,45.7,-45.7,45.7,55.900000000000006,-55.2,-35.3,55.300000000000004,-25.3,25.6,-25.3,25.1,35.199999999999996,0.3,33.2,-32.2,-0.7000000000000001,22.400000000000002,-23.400000000000002,-100,-74.6,100,74.6,-100,-81.89999999999999,100,81.89999999999999,70.6,48.3,92.9,70.6,-70.6,-48.3,-92.9,-70.6,0,0,-74.6,74.6,0,0,47.3,39.2,15.7,-47.3,-39.2,-15.7,-76.1,-55.900000000000006,76.1,-45.7,45.7,-45.7,45.7,55.900000000000006,-56.10000000000001,-35.9,56.10000000000001,-25.7,25.7,-25.7,25.7,35.9,-1.6,21.9,-20.5,-2.7,12.9,-16.8,-100,-74.6,100,74.6,-100,-81.89999999999999,100,81.89999999999999,70.6,48.3,92.9,70.6,-70.6,-48.3,-92.9,-70.6,0,0,-74.6,74.6,0,0,47.3,39.2,15.7,-47.3,-39.2,-15.7,-76.1,-55.900000000000006,76.1,-45.7,45.7,-45.7,45.7,55.900000000000006,-56.10000000000001,-35.8,56.10000000000001,-25.8,25.7,-25.7,25.7,35.9,-1.6,21.9,-20.5,-2.7,12.9,-16.8,-100,-74.6,100,74.6,-100,-81.89999999999999,100,81.89999999999999,70.6,48.3,92.9,70.6,-70.6,-48.3,-92.9,-70.6,0,0,-74.6,74.6,0,0,47.3,39.2,15.7,-47.3,-39.2,-15.7,-76.1,-55.900000000000006,76.1,-45.7,45.7,-45.7,45.7,55.900000000000006,-56.10000000000001,-35.8,56.10000000000001,-25.8,25.8,-25.7,25.7,35.9,-1.6,21.9,-20.5,-2.7,12.9,-16.8,-100,-74.6,100,74.6,-100,-81.89999999999999,100,81.89999999999999,70.6,48.3,92.9,70.6,-70.6,-48.3,-92.9,-70.6,0,0,-74.6,74.6,0,0,47.3,39.2,15.7,-47.3,-39.2,-15.7,-76.1,-55.900000000000006,76.1,-45.7,45.7,-45.7,45.7,55.900000000000006,-56.10000000000001,-35.8,56.10000000000001,-25.8,25.8,-25.7,25.7,35.9,-1.6,21.9,-20.5,-2.7,12.9,-16.8,-100,-74.6,100,74.6,-100,-81.89999999999999,100,81.89999999999999,70.6,48.3,92.9,70.6,-70.6,-48.3,-92.9,-70.6,0,0,-74.6,74.6,0,0,47.3,39.2,15.7,-47.3,-39.2,-15.7,-76.1,-55.900000000000006,76.1,-45.7,45.7,-45.7,45.7,55.900000000000006,-56.10000000000001,-35.8,56.10000000000001,-25.8,25.8,-25.7,25.7,36,-1.6,21.9,-20.5,-2.7,12.9,-16.8,59.199999999999996,31,87.4,59.199999999999996,-59.199999999999996,-31,-87.4,-59.199999999999996,35.4,-35.4,94.5,-94.5,0,112.20000000000002,-112.20000000000002,112.20000000000002,-112.20000000000002,182.1,111.3,182.1,111.3,182.1,103,-182.1,-111.3,-182.1,-111.3,-182.1,-103,59.199999999999996,31,87.4,59.199999999999996,-59.199999999999996,-31,-87.4,-59.199999999999996,35.4,-35.4,94.5,-94.5,0,112.20000000000002,-112.20000000000002,112.20000000000002,-112.20000000000002,182.1,111.3,182.1,111.3,182.1,103,-182.1,-111.3,-182.1,-111.3,-182.1,-103,59.199999999999996,31,87.4,59.199999999999996,-59.199999999999996,-31,-87.4,-59.199999999999996,35.4,-35.4,94.5,-94.5,0,112.20000000000002,-112.20000000000002,112.20000000000002,-112.20000000000002,182.1,111.3,182.1,111.3,182.1,103,-182.1,-111.3,-182.1,-111.3,-182.1,-103,59.199999999999996,31,87.4,59.199999999999996,-59.199999999999996,-31,-87.4,-59.199999999999996,35.4,-35.4,94.5,-94.5,0,112.20000000000002,-112.20000000000002,112.20000000000002,-112.20000000000002,182.1,111.3,182.1,111.3,182.1,103,-182.1,-111.3,-182.1,-111.3,-182.1,-103,59.199999999999996,31,87.4,59.199999999999996,-59.199999999999996,-31,-87.4,-59.199999999999996,35.4,-35.4,94.5,-94.5,0,112.20000000000002,-112.20000000000002,112.20000000000002,-112.20000000000002,182.1,111.3,182.1,111.3,182.1,103,-182.1,-111.3,-182.1,-111.3,-182.1,-103,59.199999999999996,31,87.4,59.199999999999996,-59.199999999999996,-31,-87.4,-59.199999999999996,35.4,-35.4,94.5,-94.5,0,112.20000000000002,-112.20000000000002,112.20000000000002,-112.20000000000002,182.1,111.3,182.1,111.3,182.1,103,-182.1,-111.3,-182.1,-111.3,-182.1,-103,59.199999999999996,31,87.4,59.199999999999996,-59.199999999999996,-31,-87.4,-59.199999999999996,35.4,-35.4,94.5,-94.5,0,112.20000000000002,-112.20000000000002,112.20000000000002,-112.20000000000002,182.1,111.3,182.1,111.3,182.1,103,-182.1,-111.3,-182.1,-111.3,-182.1,-103,59.199999999999996,31,87.4,59.199999999999996,-59.199999999999996,-31,-87.4,-59.199999999999996,35.4,-35.4,94.5,-94.5,0,112.20000000000002,-112.20000000000002,112.20000000000002,-112.20000000000002,182.1,111.3,182.1,111.3,182.1,103,-182.1,-111.3,-182.1,-111.3,-182.1,-103,59.199999999999996,31,87.4,59.199999999999996,-59.199999999999996,-31,-87.4,-59.199999999999996,35.4,-35.4,94.5,-94.5,0,112.20000000000002,-112.20000000000002,112.20000000000002,-112.20000000000002,182.1,111.3,182.1,111.3,182.1,103,-182.1,-111.3,-182.1,-111.3,-182.1,-103,59.199999999999996,31,87.4,59.199999999999996,-59.199999999999996,-31,-87.4,-59.199999999999996,35.4,-35.4,94.5,-94.5,0,112.20000000000002,-112.20000000000002,112.20000000000002,-112.20000000000002,182.1,111.3,182.1,111.3,182.1,103,-182.1,-111.3,-182.1,-111.3,-182.1,-103,59.199999999999996,31,87.4,59.199999999999996,-59.199999999999996,-31,-87.4,-59.199999999999996,35.4,-35.4,94.5,-94.5,0,112.20000000000002,-112.20000000000002,112.20000000000002,-112.20000000000002,182.1,111.3,182.1,111.3,182.1,103,-182.1,-111.3,-182.1,-111.3,-182.1,-103,0,57.3,0,-57.3,0,-31.7,-31.7,-31.7,-31.7,31.7,31.7,31.7,31.7,0,52.900000000000006,0,-52.900000000000006,0,-29.299999999999997,-29.299999999999997,-29.299999999999997,-29.299999999999997,29.299999999999997,29.299999999999997,29.299999999999997,29.299999999999997,0,49.5,0,-49.5,0,-26.5,-26.5,-26.5,-26.5,26.5,26.5,26.5,26.5,0,56.00000000000001,0,-56.00000000000001,0,-25.2,-25.2,-25.2,-25.2,25.2,25.2,25.2,25.2,0,65.4,0,-65.4,0,-24.7,-24.7,-24.7,-24.7,24.7,24.7,24.7,24.7,-0.42,-51.96,51.96,-51.96,51.96,0,51.96,-51.96,0,0,-158,3.2,158.6,-0.6,-102.2,108,170.6,-169.79999999999998,1,57.599999999999994,-53.800000000000004,1.7999999999999998,275,-284.6,-52.800000000000004,-52.800000000000004,49.2,-94.39999999999999,7.6,-11.200000000000001,90.8,49.2,58.4,46.400000000000006,70.19999999999999,-54,-42,-65.8,-147.8,143,-159.4,3.2,159.8,-0.6,-102.2,108,170.6,-169.79999999999998,1,57.599999999999994,-53.800000000000004,1.7999999999999998,275,-284.6,-52.800000000000004,-52.800000000000004,49.2,-94.39999999999999,7.6,-11.200000000000001,90.8,49.2,58.4,46.400000000000006,70.19999999999999,-54,-42,-65.8,-147.8,143,-162.6,3.4000000000000004,163.2,-0.6,-102.2,108,170.6,-169.79999999999998,1,57.599999999999994,-53.800000000000004,1.7999999999999998,275,-284.6,-52.800000000000004,-52.800000000000004,49.2,-94.39999999999999,7.6,-11.200000000000001,90.8,49.2,58.4,46.400000000000006,70.19999999999999,-54,-42,-65.8,-147.8,143,-166.6,3.5999999999999996,167.2,-0.6,-102.2,108,170.6,-169.79999999999998,1,57.599999999999994,-53.800000000000004,1.7999999999999998,275,-284.6,-52.800000000000004,-52.800000000000004,49.2,-94.39999999999999,7.6,-11.200000000000001,90.8,49.2,58.4,46.400000000000006,70.19999999999999,-54,-42,-65.8,-147.8,143,-169.79999999999998,3.5999999999999996,170.4,-0.6,-102.2,108,170.6,-169.79999999999998,1,57.599999999999994,-53.800000000000004,2,275,-284.6,-52.800000000000004,-52.800000000000004,49.2,-94.39999999999999,7.6,-11.200000000000001,90.8,49.2,58.4,46.400000000000006,70.19999999999999,-54,-42,-65.8,-147.8,143,-171.2,3.5999999999999996,171.8,-0.6,-102.2,108,170.6,-169.79999999999998,1,57.599999999999994,-53.800000000000004,2,275,-284.6,-52.800000000000004,-52.800000000000004,49.2,-94.39999999999999,7.6,-11.200000000000001,90.8,49.2,58.4,46.400000000000006,70.19999999999999,-54,-42,-65.8,-147.8,143,-169.79999999999998,3.5999999999999996,170.4,-0.6,-102.2,108,170.6,-169.79999999999998,1,57.599999999999994,-53.800000000000004,2,275,-284.6,-52.800000000000004,-52.800000000000004,49.2,-94.39999999999999,7.6,-11.200000000000001,90.8,49.2,58.4,46.400000000000006,70.19999999999999,-54,-42,-65.8,-147.8,143,-166.6,3.5999999999999996,167.2,-0.6,-102.2,108,170.6,-169.79999999999998,1,57.599999999999994,-53.800000000000004,1.7999999999999998,275,-284.6,-52.800000000000004,-52.800000000000004,49.2,-94.39999999999999,7.6,-11.200000000000001,90.8,49.2,58.4,46.400000000000006,70.19999999999999,-54,-42,-65.8,-147.8,143,-162.6,3.4000000000000004,163.2,-0.6,-102.2,108,170.6,-169.79999999999998,1,57.599999999999994,-53.800000000000004,1.7999999999999998,275,-284.6,-52.800000000000004,-52.800000000000004,49.2,-94.39999999999999,7.6,-11.200000000000001,90.8,49.2,58.4,46.400000000000006,70.19999999999999,-54,-42,-65.8,-147.8,143,-159.4,3.2,159.8,-0.6,-102.2,108,170.6,-169.79999999999998,1,57.599999999999994,-53.800000000000004,1.7999999999999998,275,-284.6,-52.800000000000004,-52.800000000000004,49.2,-94.39999999999999,7.6,-11.200000000000001,90.8,49.2,58.4,46.400000000000006,70.19999999999999,-54,-42,-65.8,-147.8,143,-162.6,3.4000000000000004,163.2,-0.6,-102.2,108,170.6,-169.79999999999998,1,57.599999999999994,-53.800000000000004,1.7999999999999998,275,-284.6,-52.800000000000004,-52.800000000000004,49.2,-94.39999999999999,7.6,-11.200000000000001,90.8,49.2,58.4,46.400000000000006,70.19999999999999,-54,-42,-65.8,-147.8,143,-166.6,3.4000000000000004,167,-0.8,-104.80000000000001,110.60000000000001,174.6,-173.8,1.2,59,-55.2,1.7999999999999998,281.4,-291.2,-54,-54,50.4,-96.6,7.8,-11.4,93,50.4,59.8,47.599999999999994,72,-55.2,-43,-67.4,-151.2,146.4,-175.8,3.5999999999999996,176.4,-0.8,-110.60000000000001,116.6,184.20000000000002,-183.4,1.2,62.4,-58.199999999999996,2,297,-307.4,-56.99999999999999,-56.99999999999999,53.2,-102,8.200000000000001,-12,98,53.2,63,50.2,76,-58.199999999999996,-45.4,-71.2,-159.60000000000002,154.4,-186.60000000000002,4,187.4,-0.8,-117.39999999999999,124,195.79999999999998,-194.79999999999998,1.2,66.2,-61.8,2,315.6,-326.6,-60.6,-60.6,56.39999999999999,-108.2,8.799999999999999,-12.8,104.2,56.39999999999999,67,53.400000000000006,80.60000000000001,-61.8,-48.199999999999996,-75.6,-169.6,164,-195.79999999999998,4,196.6,-0.8,-123.2,130,205.39999999999998,-204.4,1.2,69.39999999999999,-64.8,2.1999999999999997,331,-342.6,-63.6,-63.6,59.199999999999996,-113.6,9.2,-13.4,109.4,59.199999999999996,70.39999999999999,56.00000000000001,84.6,-65,-50.6,-79.2,-178,172.2,-199.8,4.2,200.4,-0.8,-125.6,132.6,209.39999999999998,-208.4,1.4000000000000001,70.8,-66.2,2.1999999999999997,337.59999999999997,-349.40000000000003,-64.8,-64.8,60.4,-115.8,9.4,-13.8,111.4,60.4,71.8,56.99999999999999,86.4,-66.2,-51.6,-80.80000000000001,-181.4,175.6,-195.79999999999998,4,196.6,-0.8,-123.2,130,205.39999999999998,-204.4,1.2,69.39999999999999,-64.8,2.1999999999999997,331,-342.6,-63.6,-63.6,59.199999999999996,-113.6,9.2,-13.4,109.4,59.199999999999996,70.39999999999999,56.00000000000001,84.6,-65,-50.6,-79.2,-178,172.2,-186.60000000000002,4,187.4,-0.8,-117.39999999999999,124,195.79999999999998,-194.79999999999998,1.2,66.2,-61.8,2,315.6,-326.6,-60.6,-60.6,56.39999999999999,-108.2,8.799999999999999,-12.8,104.2,56.39999999999999,67,53.400000000000006,80.60000000000001,-61.8,-48.199999999999996,-75.6,-169.6,164,-175.8,3.5999999999999996,176.4,-0.8,-110.60000000000001,116.6,184.20000000000002,-183.4,1.2,62.4,-58.199999999999996,2,297,-307.4,-56.99999999999999,-56.99999999999999,53.2,-102,8.200000000000001,-12,98,53.2,63,50.2,76,-58.199999999999996,-45.4,-71.2,-159.60000000000002,154.4,-166.6,3.4000000000000004,167,-0.8,-104.80000000000001,110.60000000000001,174.6,-173.8,1.2,59,-55.2,1.7999999999999998,281.4,-291.2,-54,-54,50.4,-96.6,7.8,-11.4,93,50.4,59.8,47.599999999999994,72,-55.2,-43,-67.4,-151.2,146.4,-198.4,4.2,199.2,-0.8,-124.8,131.8,208,-207.20000000000002,1.4000000000000001,70.39999999999999,-65.8,2.1999999999999997,335.40000000000003,-347.2,-64.4,-64.4,60,-115.19999999999999,9.2,-13.600000000000001,110.80000000000001,60,71.2,56.8,85.8,-65.8,-51.2,-80.4,-180.20000000000002,174.4,-190,4,190.6,-0.8,-119.39999999999999,126,199.2,-198.2,1.2,67.4,-63,2.1999999999999997,321,-332.2,-61.6,-61.6,57.4,-110.2,8.799999999999999,-13,106,57.4,68.2,54.2,82,-63,-49,-76.8,-172.6,166.79999999999998,-177,3.8,177.6,-0.8,-111.4,117.39999999999999,185.60000000000002,-184.60000000000002,1.2,62.8,-58.599999999999994,2,299.2,-309.6,-57.4,-57.4,53.6,-102.60000000000001,8.200000000000001,-12.2,98.8,53.6,63.6,50.6,76.4,-58.599999999999994,-45.800000000000004,-71.6,-160.8,155.6,-164,3.4000000000000004,164.6,-0.6,-103.2,109.00000000000001,172,-171.2,1,58.199999999999996,-54.400000000000006,1.7999999999999998,277.2,-287,-53.2,-53.2,49.6,-95.19999999999999,7.6,-11.200000000000001,91.60000000000001,49.6,59,46.800000000000004,71,-54.400000000000006,-42.4,-66.4,-149,144.2,-155.6,3.2,156,-0.6,-97.8,103.2,163,-162.20000000000002,1,55.2,-51.6,1.7999999999999998,262.8,-272,-50.4,-50.4,47,-90.2,7.199999999999999,-10.6,86.8,47,55.800000000000004,44.4,67.2,-51.6,-40.2,-63,-141.2,136.60000000000002,-158,3.2,158.6,-0.6,-102.2,108,170.6,-169.79999999999998,1,57.599999999999994,-53.800000000000004,1.7999999999999998,275,-284.6,-52.800000000000004,-52.800000000000004,49.2,-94.39999999999999,7.6,-11.200000000000001,90.8,49.2,58.4,46.400000000000006,70.19999999999999,-54,-42,-65.8,-147.8,143,-158,3.2,158.6,-0.6,-102.2,108,170.6,-169.79999999999998,1,57.599999999999994,-53.800000000000004,1.7999999999999998,275,-284.6,-52.800000000000004,-52.800000000000004,49.2,-94.39999999999999,7.6,-11.200000000000001,90.8,49.2,58.4,46.400000000000006,70.19999999999999,-54,-42,-65.8,-147.8,143,-158,3.2,158.6,-0.6,-102.2,108,170.6,-169.79999999999998,1,57.599999999999994,-53.800000000000004,1.7999999999999998,275,-284.6,-52.800000000000004,-52.800000000000004,49.2,-94.39999999999999,7.6,-11.200000000000001,90.8,49.2,58.4,46.400000000000006,70.19999999999999,-54,-42,-65.8,-147.8,143,-158,3.2,158.6,-0.6,-102.2,108,170.6,-169.79999999999998,1,57.599999999999994,-53.800000000000004,1.7999999999999998,275,-284.6,-52.800000000000004,-52.800000000000004,49.2,-94.39999999999999,7.6,-11.200000000000001,90.8,49.2,58.4,46.400000000000006,70.19999999999999,-54,-42,-65.8,-147.8,143,-158,3.2,158.6,-0.6,-102.2,108,170.6,-169.79999999999998,1,57.599999999999994,-53.800000000000004,1.7999999999999998,275,-284.6,-52.800000000000004,-52.800000000000004,49.2,-94.39999999999999,7.6,-11.200000000000001,90.8,49.2,58.4,46.400000000000006,70.19999999999999,-54,-42,-65.8,-147.8,143]],"gd":["#Vertex_Y",[118.88,128.68,128.68,102.68,132,14.28,14.28,14.28,94.28,8.56,-2.8000000000000003,-2.8000000000000003,-2.7600000000000002,8.56,-2.8000000000000003,-2.8000000000000003,-2.7600000000000002,76.96,70.92,83,63,76.96,70.92,83,63,119.48,128.92,128.92,102.75999999999999,132.48,14.36,14.239999999999998,14.239999999999998,94.28,8.56,-2.8000000000000003,-2.8000000000000003,-2.7600000000000002,8.56,-2.8000000000000003,-2.8000000000000003,-2.7600000000000002,77.03999999999999,70.6,83.44,63.96,77.03999999999999,70.6,83.44,63.96,119.48,128.92,128.92,102.75999999999999,132.48,14.36,14.239999999999998,14.239999999999998,94.28,8.56,-2.8000000000000003,-2.8000000000000003,-2.7600000000000002,8.56,-2.8000000000000003,-2.8000000000000003,-2.7600000000000002,77.03999999999999,70.6,83.44,63.96,77.03999999999999,70.6,83.44,63.96,121.96,129.56,129.56,102.96,134.16,14.68,13.959999999999999,13.959999999999999,94.28,8.56,-2.8000000000000003,-2.8000000000000003,-2.7600000000000002,8.56,-2.8000000000000003,-2.8000000000000003,-2.7600000000000002,77.52,69.52,85.36,69.96000000000001,77.52,69.52,85.36,69.96000000000001,122.75999999999999,129.44,129.44,103,134.44,14.84,13.759999999999998,13.759999999999998,94.28,8.56,-2.8000000000000003,-2.8000000000000003,-2.7600000000000002,8.56,-2.8000000000000003,-2.8000000000000003,-2.7600000000000002,77.8,69.28,85.92,73.04,77.8,69.28,85.92,73.04,123,129.36,129.36,103,134.48000000000002,15.04,13.600000000000001,13.600000000000001,94.24,8.56,-2.8000000000000003,-2.8000000000000003,-2.7600000000000002,8.56,-2.8000000000000003,-2.8000000000000003,-2.7600000000000002,77.96000000000001,69.24000000000001,86.08000000000001,74.32000000000001,77.96000000000001,69.24000000000001,86.08000000000001,74.32000000000001,122.6,129.44,129.44,102.96,134.36,15.16,13.440000000000001,13.440000000000001,94.2,8.56,-2.8000000000000003,-2.8000000000000003,-2.7600000000000002,8.56,-2.8000000000000003,-2.8000000000000003,-2.7600000000000002,77.92,69.2,85.8,73,77.92,69.2,85.8,73,121.6,129.48000000000002,129.48000000000002,102.88,133.92,15.24,13.4,13.4,94.2,8.56,-2.8000000000000003,-2.8000000000000003,-2.7600000000000002,8.56,-2.8000000000000003,-2.8000000000000003,-2.7600000000000002,77.72,69.32000000000001,85.16,69.92,77.72,69.32000000000001,85.16,69.92,120.36,129.2,129.2,102.8,133.12,15,13.64,13.64,94.24,8.56,-2.8000000000000003,-2.8000000000000003,-2.7600000000000002,8.56,-2.8000000000000003,-2.8000000000000003,-2.7600000000000002,77.44,69.88000000000001,84.24,66.52,77.44,69.88000000000001,84.24,66.52,119.32000000000001,128.84,128.84,102.72,132.36,14.52,14.079999999999998,14.079999999999998,94.28,8.56,-2.8000000000000003,-2.8000000000000003,-2.7600000000000002,8.56,-2.8000000000000003,-2.8000000000000003,-2.7600000000000002,77.12,70.56,83.4,63.96,77.12,70.56,83.4,63.96,121.96,129.56,129.56,102.96,134.16,14.68,13.959999999999999,13.959999999999999,94.28,20.28,10.36,10.36,4.2,16,3.92,3.92,10.16,70.36,76.32,85,67.2,84.36,69.48,77.92,67.56,121.96,129.56,129.56,102.96,134.16,14.68,13.959999999999999,13.959999999999999,94.28,19.92,9.64,9.64,4.76,16.56,4.5600000000000005,4.5600000000000005,9.559999999999999,71.39999999999999,75.03999999999999,84.92000000000002,65.72,83.16000000000001,69.36,78.96,66.04,121.96,129.56,129.56,102.96,134.16,14.68,13.959999999999999,13.959999999999999,94.28,19,8,8,6.16,17.76,6.12,6.12,8.040000000000001,74.76,72.2,83.96000000000001,63.36,79.52,69.88000000000001,81.56,63.48,121.96,129.56,129.56,102.96,134.16,14.68,13.959999999999999,13.959999999999999,94.28,17.72,6.04,6.04,7.960000000000001,19.04,8.040000000000001,8.040000000000001,6.2,79.52,69.88000000000001,81.56,63.48,74.76,72.2,83.96000000000001,63.36,121.96,129.56,129.56,102.96,134.16,14.68,13.959999999999999,13.959999999999999,94.28,16.48,4.48,4.48,9.48,19.96,9.719999999999999,9.719999999999999,4.8,83.16000000000001,69.36,78.96,66.04,71.39999999999999,75.03999999999999,84.92000000000002,65.72,121.96,129.56,129.56,102.96,134.16,14.68,13.959999999999999,13.959999999999999,94.28,15.920000000000002,3.84,3.84,10.120000000000001,20.32,10.4,10.4,4.24,84.36,69.48,77.92,67.56,70.36,76.32,85,67.2,121.96,129.56,129.56,102.96,134.16,14.68,13.959999999999999,13.959999999999999,94.28,16.48,4.48,4.48,9.48,19.96,9.719999999999999,9.719999999999999,4.8,83.16000000000001,69.36,78.96,66.04,71.39999999999999,75.03999999999999,84.92000000000002,65.72,121.96,129.56,129.56,102.96,134.16,14.68,13.959999999999999,13.959999999999999,94.28,17.72,6.04,6.04,7.960000000000001,19.04,8.040000000000001,8.040000000000001,6.2,79.52,69.88000000000001,81.56,63.48,74.76,72.2,83.96000000000001,63.36,121.96,129.56,129.56,102.96,134.16,14.68,13.959999999999999,13.959999999999999,94.28,19,8,8,6.16,17.76,6.12,6.12,8.040000000000001,74.76,72.2,83.96000000000001,63.36,79.52,69.88000000000001,81.56,63.48,121.96,129.56,129.56,102.96,134.16,14.68,13.959999999999999,13.959999999999999,94.28,19.92,9.64,9.64,4.76,16.56,4.5600000000000005,4.5600000000000005,9.559999999999999,71.39999999999999,75.03999999999999,84.92000000000002,65.72,83.16000000000001,69.36,78.96,66.04,117.36000000000001,124.84,124.84,98.28,129.48000000000002,9.559999999999999,9.559999999999999,9.559999999999999,89.56,8.56,-2.8000000000000003,-2.8000000000000003,-2.7600000000000002,8.56,-2.8000000000000003,-2.8000000000000003,-2.7600000000000002,72.24000000000001,66.16,78.28,58.239999999999995,72.24000000000001,66.16,78.28,58.239999999999995,117.72,125.19999999999999,125.19999999999999,98.64000000000001,129.84,9.92,9.92,9.92,89.92000000000002,8.44,-2.84,-2.84,-3.3200000000000003,8.44,-2.84,-2.84,-3.3200000000000003,72.64,66.36,78.92,59.24,72.64,66.36,78.92,59.24,118.72,126.24000000000001,126.24000000000001,99.64,130.88,10.96,10.96,10.96,90.96000000000001,8.08,-2.88,-2.88,-4.76,8.08,-2.88,-2.88,-4.76,73.8,66.92,80.67999999999999,62.08,73.8,66.92,80.67999999999999,62.08,120.24,127.72,127.72,101.16,132.36,12.44,12.44,12.44,92.44,7.52,-2.96,-2.96,-6.92,7.52,-2.96,-2.96,-6.92,75.52,67.84,83.16000000000001,66.72,75.52,67.84,83.16000000000001,66.72,122.04,129.52,129.52,102.96,134.16,14.239999999999998,14.239999999999998,14.239999999999998,94.24,6.760000000000001,-3.04,-3.04,-9.52,6.760000000000001,-3.04,-3.04,-9.52,77.64,69.36,85.96000000000001,72.88,77.64,69.36,85.96000000000001,72.88,124,131.51999999999998,131.51999999999998,104.92000000000002,136.16,16.240000000000002,16.240000000000002,16.240000000000002,96.24000000000001,5.8,-3.08,-3.08,-12.24,5.8,-3.08,-3.08,-12.24,80,71.44,88.56,80,80,71.44,88.56,80,126,133.48000000000002,133.48000000000002,106.88000000000001,138.12,18.2,18.2,18.2,98.2,4.8,-3.08,-3.08,-14.76,4.8,-3.08,-3.08,-14.76,82.32,74,90.64,87.08,82.32,74,90.64,87.08,127.8,135.28,135.28,108.72,139.92000000000002,20,20,20,100,3.8,-3,-3,-16.88,3.8,-3,-3,-16.88,84.44000000000001,76.76,92.08,93.24,84.44000000000001,76.76,92.08,93.24,129.28,136.8,136.8,110.19999999999999,141.4,21.48,21.48,21.48,101.47999999999999,2.96,-2.96,-2.96,-18.48,2.96,-2.96,-2.96,-18.48,86.12,79.24000000000001,93.04,97.84,86.12,79.24000000000001,93.04,97.84,130.32,137.79999999999998,137.79999999999998,111.19999999999999,142.44,22.519999999999996,22.519999999999996,22.519999999999996,102.52000000000001,2.4,-2.88,-2.88,-19.48,2.4,-2.88,-2.88,-19.48,87.28,81,93.56,100.67999999999999,87.28,81,93.56,100.67999999999999,121.12,129.32,129.32,102.75999999999999,133.6,15.72,12.96,12.96,94.12,9.52,-2.48,-2.48,2.72,9.52,-2.48,-2.48,2.72,78.56,69.03999999999999,86.12,77.92,78.56,69.03999999999999,86.12,77.92,120.36,128.92,128.92,102.4,133,16.52,12.16,12.16,93.84,11.200000000000001,-0.8400000000000001,-0.8400000000000001,5.24,11.200000000000001,-0.8400000000000001,-0.8400000000000001,5.24,82.04,71.96,88.96000000000001,81.92,82.04,71.96,88.96000000000001,81.92,118.48,127.72,127.72,101.44,131.4,18.04,10.72,10.72,93,14.28,2.16,2.16,9.92,14.28,2.16,2.16,9.92,88.52000000000001,77.64,94.16,90.32,88.52000000000001,77.6,94.16,90.24,117.24000000000001,126.8,126.8,100.67999999999999,130.28,18.84,9.92,9.92,92.36000000000001,15.920000000000002,3.8,3.8,12.4,15.920000000000002,3.8,3.8,12.4,93.08,82.24000000000001,97.6,98.52000000000001,93.16000000000001,82.16,97.6,98.32000000000001,117.52000000000001,127,127,100.88,130.51999999999998,18.64,10.120000000000001,10.120000000000001,92.52000000000001,15.56,3.4399999999999995,3.4399999999999995,11.879999999999999,15.56,3.4399999999999995,3.4399999999999995,11.879999999999999,94.92000000000002,86.03999999999999,99.12,105.72,95,85.88,99.12,105.44,118.2,127.52000000000001,127.52000000000001,101.28,131.16,18.240000000000002,10.52,10.52,92.84,14.68,2.56,2.56,10.48,14.68,2.56,2.56,10.48,95.64,91.08000000000001,100.19999999999999,112.36000000000001,95.8,90.8,100.28,112.08,119.08,128.12,128.12,101.76,131.92000000000002,17.64,11.120000000000001,11.120000000000001,93.28,13.440000000000001,1.32,1.32,8.6,13.440000000000001,1.32,1.32,8.6,95.28,96.52,100.39999999999999,116.16,95.48,96.12,100.60000000000001,116.08000000000001,119.88,128.64000000000001,128.64000000000001,102.2,132.64,16.96,11.76,11.76,93.64000000000001,12.08,0,0,6.5600000000000005,12.08,0,0,6.5600000000000005,94.03999999999999,100.96000000000001,100.19999999999999,116.12,94.28,100.52,100.44,116.35999999999999,120.55999999999999,129.04,129.04,102.47999999999999,133.16,16.36,12.36,12.36,93.91999999999999,10.84,-1.24,-1.24,4.640000000000001,10.84,-1.24,-1.24,4.640000000000001,92.56,103.56,100.03999999999999,113.64000000000001,92.8,103.16000000000001,100.32,114.2,121,129.24,129.24,102.68,133.48000000000002,15.88,12.8,12.8,94.08,9.879999999999999,-2.12,-2.12,3.24,9.879999999999999,-2.12,-2.12,3.24,91.4,104.56,100.07999999999998,110.96000000000001,91.64,104.24,100.32,111.67999999999999,40,-13.32,-13.32,-13.32,-99.56,-46.239999999999995,-46.239999999999995,-46.239999999999995,53.8,0.4,34.2,-0.52,53.8,0.4,34.2,-0.52,52.96,-1.32,-2.88,28.56,33.12,1.32,-2.64,53.28,52.839999999999996,52.839999999999996,52.839999999999996,52.839999999999996,25,25,25,25,26.12,26.12,26.12,26.12,0,0,0,0,125,98.8,77.9,61.6,-27.800000000000004,-22,-112.6,-89,-112.6,-89,-27.800000000000004,-22,77.9,61.6,139.39999999999998,56.2,139.39999999999998,56.2,161.1,46.400000000000006,161.1,46.400000000000006,150,122.10000000000001,122.10000000000001,197.2,150,122.10000000000001,122.10000000000001,197.2,78.7,87.6,92.5,92.5,112.1,118.9,105.3,128.7,115.6,105.3,128.7,115.6,36.199999999999996,-4.3,36.199999999999996,36.199999999999996,36.199999999999996,36.199999999999996,36.199999999999996,-4.3,45.1,4.8,45.1,43.4,46.800000000000004,46.800000000000004,43.4,4.8,143.79999999999998,101.49999999999999,101.8,153.7,141.2,141.3,137.5,54.2,137.5,54.2,161,46.400000000000006,161.1,46.400000000000006,149.10000000000002,121.50000000000001,119.9,194.5,149.10000000000002,121.50000000000001,119.9,194.5,76.7,85.7,90.60000000000001,90.60000000000001,110.1,117,103,126.49999999999999,113.3,103,126.49999999999999,113.3,36.199999999999996,-4.3,36.199999999999996,36.199999999999996,36.199999999999996,36.199999999999996,36.199999999999996,-4.3,43.5,3.2,43.5,42.199999999999996,44.9,44.9,42.199999999999996,3.2,142.79999999999998,102,102.3,152.4,140.39999999999998,140.5,133.1,49.6,133.1,49.6,160.8,46.400000000000006,161.3,46.400000000000006,146.8,119.39999999999999,114.99999999999999,187.4,146.8,119.39999999999999,115.10000000000001,187.4,72,81.2,86.1,86.1,105.2,112.5,97.5,121.10000000000001,107.80000000000001,97.5,121.10000000000001,107.80000000000001,36.199999999999996,-4.3,36.199999999999996,36.199999999999996,36.199999999999996,36.199999999999996,36.199999999999996,-4.3,39.900000000000006,-0.5,39.900000000000006,39.300000000000004,40.5,40.5,39.300000000000004,-0.5,140.3,103.49999999999999,103.69999999999999,149.3,138.5,138.5,127.69999999999999,44.2,127.69999999999999,44.2,160.60000000000002,46.400000000000006,161.4,46.400000000000006,143.79999999999998,115.5,110.3,178.9,143.79999999999998,115.5,110.3,178.9,66.5,75.8,80.7,80.7,99.3,107.2,90.9,114.5,101.2,90.9,114.5,101.2,36.199999999999996,-4.3,36.199999999999996,36.199999999999996,36.199999999999996,36.199999999999996,36.199999999999996,-4.3,35.699999999999996,-4.7,35.699999999999996,36.1,35.3,35.3,36.1,-4.7,137.3,105.2,105.4,145.6,136.1,136.20000000000002,127.69999999999999,44.2,127.69999999999999,44.2,160.60000000000002,46.400000000000006,161.4,46.400000000000006,143.79999999999998,115.5,110.3,178.9,143.79999999999998,115.5,110.3,178.9,66.5,75.8,80.7,80.7,99.3,107.2,90.9,114.5,101.2,90.9,114.5,101.2,36.199999999999996,-4.3,36.199999999999996,36.199999999999996,36.199999999999996,36.199999999999996,36.199999999999996,-4.3,35.699999999999996,-4.7,35.699999999999996,36.1,35.3,35.3,36.1,-4.7,137.3,105.2,105.4,145.6,136.1,136.20000000000002,121.2,38,121.2,38,160.3,46.400000000000006,161.60000000000002,46.400000000000006,139.79999999999998,107.5,107.5,170.5,139.79999999999998,107.5,107.5,170.5,60,69.39999999999999,74.4,74.4,92.2,100.69999999999999,83.1,106.60000000000001,93.4,83.1,106.60000000000001,93.4,36.199999999999996,-4.3,36.199999999999996,36.199999999999996,36.199999999999996,36.199999999999996,36.199999999999996,-4.3,31,-9.4,31,32.5,29.4,29.4,32.5,-9.4,133.7,107.3,107.5,141.1,133.29999999999998,133.29999999999998,123.2,39.800000000000004,123.2,39.800000000000004,160.4,46.400000000000006,161.60000000000002,46.400000000000006,140.9,109.1,109.1,173.4,140.9,109.1,109.1,173.4,61.9,71.3,76.2,76.2,94.3,102.60000000000001,85.39999999999999,108.89999999999999,95.7,85.39999999999999,108.89999999999999,95.7,36.199999999999996,-4.3,36.199999999999996,36.199999999999996,36.199999999999996,36.199999999999996,36.199999999999996,-4.3,32.300000000000004,-8.1,32.300000000000004,33.5,31.2,31.2,33.5,-8.1,134.8,106.60000000000001,106.89999999999999,142.4,134.1,134.20000000000002,127.69999999999999,44.2,127.69999999999999,44.2,160.60000000000002,46.400000000000006,161.4,46.400000000000006,143.6,112.79999999999998,112.79999999999998,180.20000000000002,143.6,112.79999999999998,112.79999999999998,180.20000000000002,66.5,75.8,80.7,80.7,99.3,107.2,90.9,114.5,101.2,90.9,114.5,101.2,36.199999999999996,-4.3,36.199999999999996,36.199999999999996,36.199999999999996,36.199999999999996,36.199999999999996,-4.3,35.699999999999996,-4.7,35.699999999999996,36.1,35.3,35.3,36.1,-4.7,137.3,105.2,105.4,145.6,136.1,136.20000000000002,133.1,49.6,133.1,49.6,160.8,46.400000000000006,161.3,46.400000000000006,146.6,117.10000000000001,117.10000000000001,188.1,146.6,117.10000000000001,117.10000000000001,188.1,72,81.2,86.1,86.1,105.2,112.5,97.5,121.10000000000001,107.80000000000001,97.5,121.10000000000001,107.80000000000001,36.199999999999996,-4.3,36.199999999999996,36.199999999999996,36.199999999999996,36.199999999999996,36.199999999999996,-4.3,39.900000000000006,-0.5,39.900000000000006,39.300000000000004,40.5,40.5,39.300000000000004,-0.5,140.3,103.49999999999999,103.69999999999999,149.3,138.5,138.5,137.5,54.2,137.5,54.2,161,46.400000000000006,161.1,46.400000000000006,149,120.7,120.7,194.6,149,120.7,120.7,194.6,76.7,85.7,90.60000000000001,90.60000000000001,110.1,117,103,126.49999999999999,113.3,103,126.49999999999999,113.3,36.199999999999996,-4.3,36.199999999999996,36.199999999999996,36.199999999999996,36.199999999999996,36.199999999999996,-4.3,43.5,3.2,43.5,42.199999999999996,44.9,44.9,42.199999999999996,3.2,142.79999999999998,102,102.3,152.4,140.39999999999998,140.5,124.70000000000002,41.199999999999996,124.70000000000002,41.199999999999996,168.6,46.400000000000006,162,46.400000000000006,143.79999999999998,107.5,107.5,152.5,143.79999999999998,107.5,107.5,152.5,63.4,72.7,77.7,77.7,95.89999999999999,104.1,87.2,110.7,97.5,87.2,110.7,97.5,36.6,-3.3000000000000003,35.199999999999996,39.7,42.699999999999996,33.4,27.6,-1.4000000000000001,33.4,-3.5999999999999996,33.4,26.3,33.5,40.5,33.5,-7.000000000000001,144,101.29999999999998,101.8,155.7,143.1,143.2,124.70000000000002,41.199999999999996,124.70000000000002,41.199999999999996,164,46.400000000000006,166.5,46.400000000000006,143.79999999999998,107.5,107.5,152.5,143.79999999999998,107.5,107.5,152.5,63.4,72.7,77.7,77.7,95.89999999999999,104.1,87.2,110.7,97.5,87.2,110.7,97.5,35.6,-3.5999999999999996,36.1,31.3,36.4,39.900000000000006,35.9,-4.3,33.5,-6.7,32.9,31.2,38.6,35.8,29.2,-5.4,156.5,94.1,94.69999999999999,171.3,152.89999999999998,153.1,124.70000000000002,41.199999999999996,124.70000000000002,41.199999999999996,161.1,46.400000000000006,169.4,46.400000000000006,143.79999999999998,107.5,107.5,152.5,143.79999999999998,107.5,107.5,152.5,63.4,72.7,77.7,77.7,95.89999999999999,104.1,87.2,110.7,97.5,87.2,110.7,97.5,35,-0.1,36.7,26.200000000000003,32.2,43.7,41.3,-2.4,33.4,-7.000000000000001,32.300000000000004,34.300000000000004,41.8,32.5,26.700000000000003,-2.9000000000000004,117,117,117,121.7,121.7,121.7,124.70000000000002,41.199999999999996,124.70000000000002,41.199999999999996,162,46.400000000000006,168.6,46.400000000000006,143.79999999999998,107.5,107.5,152.5,143.79999999999998,107.5,107.5,152.5,63.4,72.7,77.7,77.7,95.89999999999999,104.1,87.2,110.7,97.5,87.2,110.7,97.5,35.199999999999996,-1.4000000000000001,36.6,27.6,33.4,42.699999999999996,39.7,-3.3000000000000003,33.4,-7.000000000000001,32.5,33.4,40.8,33.5,27.400000000000002,-3.6999999999999997,144,101.29999999999998,101.8,155.7,143.1,143.2,124.70000000000002,41.199999999999996,124.70000000000002,41.199999999999996,166.5,46.400000000000006,164,46.400000000000006,143.79999999999998,107.5,107.5,152.5,143.79999999999998,107.5,107.5,152.5,63.4,72.7,77.7,77.7,95.89999999999999,104.1,87.2,110.7,97.5,87.2,110.7,97.5,36.1,-4.3,35.6,35.9,39.900000000000006,36.4,31.3,-3.5999999999999996,33.4,-5.4,33.2,28.499999999999996,35.8,38.4,31.5,-6.7,156.5,94.1,94.69999999999999,171.3,152.89999999999998,153.1,129.9,46.400000000000006,129.9,46.400000000000006,161.1,46.400000000000006,161.1,46.400000000000006,144.79999999999998,114.5,114.5,183.4,144.79999999999998,114.5,114.5,183.4,68.7,77.9,82.89999999999999,82.89999999999999,101.6,109.3,93.5,117.10000000000001,103.89999999999999,93.5,117.10000000000001,103.89999999999999,36.199999999999996,-4.3,36.199999999999996,36.199999999999996,36.199999999999996,36.199999999999996,36.199999999999996,-4.3,37.4,-3.1,37.4,37.4,37.4,37.4,37.4,-3.1,117,117,117,120,120,120,126.1,43.1,126.1,43.1,164,46.400000000000006,163.9,46.400000000000006,142.9,110.7,110.7,172.9,142.9,110.7,110.7,172.9,65.2,74.5,79.4,79.4,97.7,105.60000000000001,89.2,112.6,99.4,89.2,112.6,99.4,36.199999999999996,-4.3,36.199999999999996,36.199999999999996,36.199999999999996,36.199999999999996,36.199999999999996,-4.3,35,-5,35,33.5,36.6,36.6,33.5,-5,119.8,115.3,115.39999999999999,123.6,122.30000000000001,122.30000000000001,117.10000000000001,36,117.10000000000001,36,170.70000000000002,46.400000000000006,170.70000000000002,46.400000000000006,138.1,102.69999999999999,102.69999999999999,147.3,138.1,102.69999999999999,102.69999999999999,147.3,57.3,66.60000000000001,71.39999999999999,71.39999999999999,88.5,97.1,79.2,102.1,89.2,79.2,102.1,89.2,36.199999999999996,-4.3,36.199999999999996,36.3,36.1,36.1,36.3,-4.3,29.9,-7.7,29.9,24.5,35.3,35.3,24.5,-7.7,126.6,111.4,111.5,132.20000000000002,127.69999999999999,127.69999999999999,106.80000000000001,28.499999999999996,106.80000000000001,28.499999999999996,178.4,46.400000000000006,178.4,46.400000000000006,132,95.19999999999999,95.19999999999999,116.9,132,95.19999999999999,95.19999999999999,116.9,48.8,58.099999999999994,62.7,62.7,78.3,87.5,68.2,90.3,77.8,68.2,90.3,77.8,36.199999999999996,-4.3,36.199999999999996,36.5,35.9,35.9,36.5,-4.3,24.7,-7.1,24.7,15,34.300000000000004,34.4,15,-7.1,134.60000000000002,106.69999999999999,107,142.3,134,134.1,98.5,23.3,98.5,23.3,184.60000000000002,46.400000000000006,184.60000000000002,46.400000000000006,126.69999999999999,90.5,90.5,92.9,126.69999999999999,90.5,90.5,92.9,42.6,51.7,56.2,56.2,70.39999999999999,80,59.699999999999996,80.9,69,59.699999999999996,80.9,69,36.3,-4.2,36.3,37,35.5,35.5,37,-4.2,21.2,-4,21.2,8.799999999999999,33.6,33.6,8.799999999999999,-4,141.1,103,103.3,150.4,139.1,139.2,95.1,21.4,95.1,21.4,187.1,46.400000000000006,187.1,46.400000000000006,124.30000000000001,89,89,83.3,124.30000000000001,89,89,83.3,40.2,49.2,53.6,53.6,67.2,76.9,56.3,77.2,65.4,56.3,77.2,65.4,36.4,-4,36.4,37.8,34.9,34.9,37.8,-4,19.900000000000002,-2.3,19.900000000000002,6.7,33.1,33.2,6.7,-2.3,143.79999999999998,101.49999999999999,101.8,153.7,141.2,141.3,130.20000000000002,51.6,130.20000000000002,51.6,174.6,46.400000000000006,174.6,46.400000000000006,145.2,111.80000000000001,111.80000000000001,158.1,145.2,111.80000000000001,111.80000000000001,158.1,72.7,81.3,86,86,103.89999999999999,110.9,96.6,118.8,106.3,96.6,118.8,106.3,44.7,4.7,44.7,47.4,42.1,42.1,47.4,4.7,42.5,9.6,42.5,34.2,50.8,50.8,34.1,9.6,143.79999999999998,101.49999999999999,101.8,153.7,141.2,141.3,159.8,87.5,159.8,87.5,161.1,46.400000000000006,161.1,46.400000000000006,157.7,138.9,138.9,221,157.7,138.9,138.9,221,107.89999999999999,114.8,119.10000000000001,119.10000000000001,138.7,142,136.1,156.5,145,136.1,156.5,145,53,13.3,53,56.39999999999999,49.6,49.6,56.39999999999999,13.3,71.89999999999999,34.2,71.89999999999999,70,73.7,73.7,70,34.2,143.79999999999998,101.49999999999999,101.8,153.7,141.2,141.3,153.8,77.4,153.8,77.4,161.1,46.400000000000006,161.1,46.400000000000006,155.7,134.20000000000002,134.20000000000002,215,155.7,134.20000000000002,134.20000000000002,215,98.6,106.3,110.80000000000001,110.80000000000001,130.6,135,126.49999999999999,148.10000000000002,136,126.49999999999999,148.10000000000002,136,48.699999999999996,8.6,48.699999999999996,51.2,46.1,46.1,51.2,8.6,63.1,24.6,63.1,61.6,64.60000000000001,64.60000000000001,61.6,24.6,137.1,105.3,105.60000000000001,145.3,136,136,139.3,57.49999999999999,139.3,57.49999999999999,161.1,46.400000000000006,161.1,46.400000000000006,149.5,122.2,122.2,196.4,149.5,122.2,122.2,196.4,79.60000000000001,88.4,93.2,93.2,112.6,119.10000000000001,105.89999999999999,129,115.99999999999999,105.89999999999999,129,115.99999999999999,40.5,0.1,40.5,41.4,39.7,39.7,41.4,0.1,46.400000000000006,6.5,46.400000000000006,45.800000000000004,46.9,46.9,45.800000000000004,6.5,124.10000000000001,112.79999999999998,112.99999999999999,129,125.69999999999999,125.69999999999999,109.80000000000001,27.800000000000004,109.80000000000001,27.800000000000004,161.1,46.400000000000006,161.1,46.400000000000006,132.8,98.5,98.5,153,132.8,98.4,98.4,153,49.1,58.8,63.6,63.6,80.10000000000001,89.60000000000001,69.8,92.9,79.9,69.8,92.9,79.9,36.199999999999996,-4.3,36.199999999999996,36.199999999999996,36.199999999999996,36.199999999999996,36.199999999999996,-4.3,23.400000000000002,-16.3,24.099999999999998,26.8,28.599999999999998,20,17.299999999999997,-15,143.79999999999998,101.49999999999999,101.8,153.7,141.2,141.3,109.89999999999999,27.400000000000002,109.89999999999999,27.400000000000002,161,46.400000000000006,161.1,46.400000000000006,133.20000000000002,99,98.1,153.4,133.1,99,98.1,153.4,48.8,58.599999999999994,63.4,63.5,80.10000000000001,89.60000000000001,69.69999999999999,93,79.9,69.69999999999999,92.9,79.9,36.199999999999996,-4.3,36.199999999999996,36.199999999999996,36.199999999999996,36.199999999999996,36.199999999999996,-4.3,22.900000000000002,-17,23.599999999999998,26.400000000000002,27.3,19.5,17.8,-16.3,142.79999999999998,102,102.3,152.4,140.39999999999998,140.5,110.2,26.400000000000002,110.2,26.400000000000002,160.8,46.400000000000006,161.3,46.400000000000006,133.9,100,97.39999999999999,154,133.9,100,97.39999999999999,153.9,48.199999999999996,57.99999999999999,63,63,79.9,89.5,69.3,93,79.7,69.3,93,79.7,36.199999999999996,-4.3,36.199999999999996,36.199999999999996,36.199999999999996,36.199999999999996,36.199999999999996,-4.3,21.8,-18.7,22.400000000000002,25.3,24.2,18.4,19.1,-19.1,140.3,103.49999999999999,103.69999999999999,149.3,138.5,138.5,110.5,25.2,110.5,25.2,160.60000000000002,46.400000000000006,161.4,46.400000000000006,134.7,100.6,97.1,154.7,134.7,100.6,97.1,154.7,47.4,57.4,62.5,62.5,79.7,89.5,68.89999999999999,93,79.5,68.89999999999999,93,79.5,36.199999999999996,-4.3,36.199999999999996,36.199999999999996,36.199999999999996,36.199999999999996,36.199999999999996,-4.3,20.599999999999998,-20.8,20.9,24.099999999999998,20.200000000000003,17,20.7,-21.5,137.3,105.2,105.4,145.6,136.1,136.20000000000002,110.80000000000001,24.2,110.80000000000001,24.2,160.4,46.400000000000006,161.60000000000002,46.400000000000006,135.4,100.6,97.3,155.8,135.4,100.6,97.3,155.8,46.7,56.89999999999999,62.1,62.1,79.5,89.5,68.60000000000001,93,79.3,68.60000000000001,93,79.3,36.199999999999996,-4.3,36.199999999999996,36.199999999999996,36.199999999999996,36.199999999999996,36.199999999999996,-4.3,19.5,-22.5,19.6,23.1,16.900000000000002,15.9,22.1,-22.8,134.8,106.60000000000001,106.89999999999999,142.4,134.1,134.20000000000002,110.9,23.799999999999997,111.00000000000001,23.799999999999997,160.3,46.400000000000006,161.60000000000002,46.400000000000006,135.60000000000002,100.4,97.5,156.4,135.60000000000002,100.4,97.5,156.4,46.400000000000006,56.699999999999996,61.9,61.9,79.4,89.5,68.5,93.10000000000001,79.2,68.4,93.10000000000001,79.2,36.199999999999996,-4.3,36.199999999999996,36.199999999999996,36.199999999999996,36.199999999999996,36.199999999999996,-4.3,19,-23.200000000000003,19.1,22.7,15.4,15.4,22.7,-23.200000000000003,133.7,107.3,107.5,141.1,133.29999999999998,133.29999999999998,110.80000000000001,24.2,110.80000000000001,24.2,160.4,46.400000000000006,161.60000000000002,46.400000000000006,135.3,100,97.8,156.29999999999998,135.3,100,97.8,156.20000000000002,46.7,56.89999999999999,62.1,62.1,79.5,89.5,68.60000000000001,93,79.3,68.60000000000001,93,79.3,36.199999999999996,-4.3,36.199999999999996,36.199999999999996,36.199999999999996,36.199999999999996,36.199999999999996,-4.3,19.5,-22.5,19.6,23.1,16.900000000000002,15.9,22.1,-22.8,134.8,106.60000000000001,106.89999999999999,142.4,134.1,134.20000000000002,110.5,25.2,110.5,25.2,160.60000000000002,46.400000000000006,161.4,46.400000000000006,134.60000000000002,99.5,98.1,155.5,134.60000000000002,99.5,98.1,155.5,47.4,57.4,62.5,62.5,79.7,89.5,68.89999999999999,93,79.5,68.89999999999999,93,79.5,36.199999999999996,-4.3,36.199999999999996,36.199999999999996,36.199999999999996,36.199999999999996,36.199999999999996,-4.3,20.599999999999998,-20.8,20.9,24.099999999999998,20.200000000000003,17,20.7,-21.5,137.3,105.2,105.4,145.6,136.1,136.20000000000002,110.2,26.400000000000002,110.2,26.400000000000002,160.8,46.400000000000006,161.3,46.400000000000006,133.8,99,98.3,154.4,133.8,99,98.3,154.4,48.199999999999996,57.99999999999999,63,63,79.9,89.5,69.3,93,79.7,69.3,93,79.7,36.199999999999996,-4.3,36.199999999999996,36.199999999999996,36.199999999999996,36.199999999999996,36.199999999999996,-4.3,21.8,-18.7,22.400000000000002,25.3,24.2,18.4,19.1,-19.1,140.3,103.49999999999999,103.69999999999999,149.3,138.5,138.5,109.89999999999999,27.400000000000002,109.89999999999999,27.400000000000002,161,46.400000000000006,161.1,46.400000000000006,133.1,98.6,98.4,153.4,133.1,98.6,98.4,153.4,48.8,58.599999999999994,63.4,63.5,80.10000000000001,89.60000000000001,69.69999999999999,93,79.9,69.69999999999999,92.9,79.9,36.199999999999996,-4.3,36.199999999999996,36.199999999999996,36.199999999999996,36.199999999999996,36.199999999999996,-4.3,22.900000000000002,-17,23.599999999999998,26.400000000000002,27.3,19.5,17.8,-16.3,142.79999999999998,102,102.3,152.4,140.39999999999998,140.5,99.6,20.9,99.6,20.9,168.6,46.400000000000006,162,46.400000000000006,127.60000000000001,89.9,89.9,112.99999999999999,127.49999999999999,89.9,89.9,112.99999999999999,41,50.6,55.300000000000004,55.300000000000004,70.19999999999999,80.2,59.099999999999994,81.3,68.8,59.099999999999994,81.3,68.8,36.6,-3.3000000000000003,35.199999999999996,39.7,42.699999999999996,33.4,27.6,-1.4000000000000001,32.800000000000004,-6.3,32.7,29.799999999999997,28.599999999999998,35.9,36.8,-6,144,101.29999999999998,101.8,155.7,143.1,143.2,99.6,20.9,99.6,20.9,164,46.400000000000006,166.5,46.400000000000006,127.60000000000001,89.9,89.9,112.99999999999999,127.49999999999999,89.9,89.9,112.99999999999999,41,50.6,55.300000000000004,55.300000000000004,70.19999999999999,80.2,59.099999999999994,81.3,68.8,59.099999999999994,81.3,68.8,35.6,-3.5999999999999996,36.1,31.3,36.4,39.900000000000006,35.9,-4.3,32.800000000000004,-6.800000000000001,32.7,34.599999999999994,33.5,30.9,32.4,-6.9,156.5,94.1,94.69999999999999,171.3,152.89999999999998,153.1,99.6,20.9,99.6,20.9,161.1,46.400000000000006,169.4,46.400000000000006,127.60000000000001,89.9,89.9,112.99999999999999,127.49999999999999,89.9,89.9,112.99999999999999,41,50.6,55.300000000000004,55.300000000000004,70.19999999999999,80.2,59.099999999999994,81.3,68.8,59.099999999999994,81.3,68.8,35,-0.1,36.7,26.200000000000003,32.2,43.7,41.3,-2.4,32.6,-5.5,32.4,37.6,36.8,27.700000000000003,29.7,-6,117,117,117,121.7,121.7,121.7,99.6,20.9,99.6,20.9,164,46.400000000000006,166.5,46.400000000000006,127.60000000000001,89.9,89.9,112.99999999999999,127.49999999999999,89.9,89.9,112.99999999999999,41,50.6,55.300000000000004,55.300000000000004,70.19999999999999,80.2,59.099999999999994,81.3,68.8,59.099999999999994,81.3,68.8,35.6,-3.5999999999999996,36.1,31.3,36.4,39.900000000000006,35.9,-4.3,32.800000000000004,-6.800000000000001,32.7,34.599999999999994,33.5,30.9,32.4,-6.9,169.2,86.7,87.6,187,162.7,163,99.6,20.9,99.6,20.9,168.6,46.400000000000006,162,46.400000000000006,127.60000000000001,89.9,89.9,112.99999999999999,127.49999999999999,89.9,89.9,112.99999999999999,41,50.6,55.300000000000004,55.300000000000004,70.19999999999999,80.2,59.099999999999994,81.3,68.8,59.099999999999994,81.3,68.8,36.6,-3.3000000000000003,35.199999999999996,39.7,42.699999999999996,33.4,27.6,-1.4000000000000001,32.800000000000004,-6.3,32.7,29.799999999999997,28.599999999999998,35.9,36.8,-6,131.1,108.89999999999999,109.1,139.39999999999998,132.9,132.9,139.3,56.2,139.3,56.2,161.1,46.400000000000006,161.1,46.400000000000006,149.9,122.39999999999999,122.39999999999999,198.5,149.9,122.39999999999999,122.39999999999999,198.5,78.7,87.6,92.5,92.5,112.1,118.8,105.2,128.7,115.5,105.2,128.7,115.5,36.199999999999996,-4.3,36.199999999999996,36.4,36,36,36.4,-4.3,45.1,4.8,45.1,43.1,47,47,43.1,4.8,143.79999999999998,101.49999999999999,101.8,153.7,141.2,141.3,139.1,55.900000000000006,139.1,55.900000000000006,161.1,46.400000000000006,161.1,46.400000000000006,148.8,124.70000000000002,124.70000000000002,206.99999999999997,148.8,124.70000000000002,124.70000000000002,206.99999999999997,78.4,87.3,92.30000000000001,92.30000000000001,111.80000000000001,118.6,104.89999999999999,128.4,115.19999999999999,104.89999999999999,128.4,115.19999999999999,36.4,-4,36.4,37.8,34.9,34.9,37.8,-4,44.9,5.2,44.9,41.4,48.3,48.3,41.4,5.2,143.79999999999998,101.49999999999999,101.8,153.7,141.2,141.3,138.7,55.50000000000001,138.7,55.50000000000001,161.1,46.400000000000006,161.1,46.400000000000006,147.2,128.8,128.8,218.5,147.2,128.8,128.8,218.5,78,86.9,91.9,91.9,111.4,118.19999999999999,104.5,127.89999999999999,114.7,104.5,127.89999999999999,114.7,36.6,-3.1,36.6,40,33.2,33.2,40,-3.1,44.5,6.3,44.6,38.800000000000004,50.3,50.3,38.800000000000004,6.3,143.79999999999998,101.49999999999999,101.8,153.7,141.2,141.3,138.3,55.2,138.3,55.2,161.1,46.400000000000006,161.1,46.400000000000006,145.6,133.5,133.5,227.8,145.6,133.5,133.5,227.8,77.60000000000001,86.6,91.5,91.5,111.00000000000001,117.8,104,127.49999999999999,114.3,104,127.49999999999999,114.3,36.8,-1.7999999999999998,36.8,42.1,31.5,31.5,42.1,-1.7999999999999998,44.2,8.1,44.2,36.3,52.1,52.1,36.3,8.1,143.79999999999998,101.49999999999999,101.8,153.7,141.2,141.3,138.1,54.900000000000006,138.1,54.900000000000006,161.1,46.400000000000006,161.1,46.400000000000006,144.70000000000002,136.9,136.9,232.50000000000003,144.70000000000002,136.9,136.9,232.50000000000003,77.4,86.3,91.2,91.2,110.7,117.6,103.69999999999999,127.2,113.99999999999999,103.69999999999999,127.2,113.99999999999999,36.9,-0.7000000000000001,36.9,43.4,30.5,30.5,43.4,-0.7000000000000001,43.9,9.6,44,34.699999999999996,53.2,53.2,34.699999999999996,9.6,143.79999999999998,101.49999999999999,101.8,153.7,141.2,141.3,1.5,1.5,1.5,104.69999999999999,1.5,1.5,1.5,104.69999999999999,193.5,193.5,257.7,257.7,259.3,96.6,96.6,96.6,96.6,153.2,153.2,127,127,179.4,179.4,153.2,153.2,127,127,179.4,179.4,6.2,40.699999999999996,40.699999999999996,102.2,1.5,1.5,1.5,104.69999999999999,193.5,193.5,257.7,257.7,259.3,96.6,96.6,96.6,96.6,153.2,153.2,127,127,179.4,179.4,153.2,153.2,127,127,179.4,179.4,-3.1,15.6,15.6,104.69999999999999,1.5,1.5,1.5,104.69999999999999,193.5,193.5,257.7,257.7,259.3,96.6,96.6,96.6,96.6,153.2,153.2,127,127,179.4,179.4,153.2,153.2,127,127,179.4,179.4,1.5,1.5,1.5,104.69999999999999,1.5,1.5,1.5,104.69999999999999,193.5,193.5,257.7,257.7,259.3,96.6,96.6,96.6,96.6,153.2,153.2,127,127,179.4,179.4,153.2,153.2,127,127,179.4,179.4,1.5,1.5,1.5,104.69999999999999,-2.6,7.199999999999999,7.199999999999999,105.1,193.5,193.5,257.7,257.7,259.3,96.6,96.6,96.6,96.6,153.2,153.2,127,127,179.4,179.4,153.2,153.2,127,127,179.4,179.4,1.5,1.5,1.5,104.69999999999999,-0.3,26.6,26.6,103.8,193.5,193.5,257.7,257.7,259.3,96.6,96.6,96.6,96.6,153.2,153.2,127,127,179.4,179.4,153.2,153.2,127,127,179.4,179.4,1.5,1.5,1.5,104.69999999999999,6.2,40.699999999999996,40.699999999999996,102.2,193.5,193.5,257.7,257.7,259.3,96.6,96.6,96.6,96.6,153.2,153.2,127,127,179.4,179.4,153.2,153.2,127,127,179.4,179.4,1.5,1.5,1.5,104.69999999999999,-3.1,15.6,15.6,104.69999999999999,193.5,193.5,257.7,257.7,259.3,96.6,96.6,96.6,96.6,153.2,153.2,127,127,179.4,179.4,153.2,153.2,127,127,179.4,179.4,1.5,1.5,1.5,104.69999999999999,1.5,1.5,1.5,104.69999999999999,193.5,193.5,257.7,257.7,259.3,96.6,96.6,96.6,96.6,153.2,153.2,127,127,179.4,179.4,153.2,153.2,127,127,179.4,179.4,-2.6,7.199999999999999,7.199999999999999,105.1,1.5,1.5,1.5,104.69999999999999,193.5,193.5,257.7,257.7,259.3,96.6,96.6,96.6,96.6,153.2,153.2,127,127,179.4,179.4,153.2,153.2,127,127,179.4,179.4,-0.3,26.6,26.6,103.8,1.5,1.5,1.5,104.69999999999999,193.5,193.5,257.7,257.7,259.3,96.6,96.6,96.6,96.6,153.2,153.2,127,127,179.4,179.4,153.2,153.2,127,127,179.4,179.4,57.699999999999996,0.3,-56.99999999999999,0.3,0.3,-31.7,31.7,-31.7,31.7,-31.7,31.7,-31.7,31.7,53.300000000000004,0.3,-52.6,0.3,0.3,-29.299999999999997,29.299999999999997,-29.299999999999997,29.299999999999997,-29.299999999999997,29.299999999999997,-29.299999999999997,29.299999999999997,49.8,0.3,-49.3,0.3,0.3,-26.5,26.5,-26.5,26.5,-26.5,26.5,-26.5,26.5,55.900000000000006,0,-55.800000000000004,0,0.3,-25.2,25.2,-25.2,25.2,-25.2,25.2,-25.2,25.2,65,-0.2,-65.4,-0.2,0.3,-24.7,24.7,-24.7,24.7,-24.7,24.7,-24.7,24.7,46.26,114.36,114.36,-91.02,-91.02,-43.32,26.64,26.64,3.36,-60.419999999999995,102.8,168,102.8,102.8,281.59999999999997,281.59999999999997,281.59999999999997,281.59999999999997,273.6,407.4,407.4,118.39999999999999,101.4,102.8,116.19999999999999,0.2,116.19999999999999,116.19999999999999,116.19999999999999,116.19999999999999,116.19999999999999,2.6,304.8,357,357,304.8,357,357,1,3,102.2,168.6,102.2,102.8,283.59999999999997,283.59999999999997,283.59999999999997,283.59999999999997,275.4,410.59999999999997,410.59999999999997,118,101.6,102.8,116.39999999999999,-0.8,116.39999999999999,116.39999999999999,116.39999999999999,116.39999999999999,116.39999999999999,1.6,306.8,359.6,359.6,306.8,359.6,359.6,0,2,101,170.2,101,103,287.8,287.8,287.8,287.8,279.4,417.8,417.8,116.8,101.6,103,117,-3,117,117,117,117,117,-0.6,311.6,365.6,365.6,311.6,365.6,365.6,-2.1999999999999997,-0.2,99.2,172,99.2,103.2,293,293,293,293,284.4,426.6,426.6,115.19999999999999,101.8,103.2,117.6,-5.800000000000001,117.6,117.6,117.6,117.6,117.6,-3.2,317.6,373,373,317.6,373,373,-4.8,-2.8000000000000003,97.8,173.6,97.8,103.4,297.40000000000003,297.40000000000003,297.40000000000003,297.40000000000003,288.6,433.8,433.8,113.99999999999999,102,103.4,118,-8,118,118,118,118,118,-5.4,322.40000000000003,379,379,322.40000000000003,379,379,-7.199999999999999,-4.8,97.2,174.2,97.2,103.4,299.2,299.2,299.2,299.2,290.4,437,437,113.39999999999999,102,103.4,118.19999999999999,-9,118.19999999999999,118.19999999999999,118.19999999999999,118.19999999999999,118.19999999999999,-6.2,324.40000000000003,381.59999999999997,381.59999999999997,324.40000000000003,381.59999999999997,381.59999999999997,-8,-5.800000000000001,97.8,173.6,97.8,103.4,297.40000000000003,297.40000000000003,297.40000000000003,297.40000000000003,288.6,433.8,433.8,113.99999999999999,102,103.4,118,-8,118,118,118,118,118,-5.4,322.40000000000003,379,379,322.40000000000003,379,379,-7.199999999999999,-4.8,99.2,172,99.2,103.2,293,293,293,293,284.4,426.6,426.6,115.19999999999999,101.8,103.2,117.6,-5.800000000000001,117.6,117.6,117.6,117.6,117.6,-3.2,317.6,373,373,317.6,373,373,-4.8,-2.8000000000000003,101,170.2,101,103,287.8,287.8,287.8,287.8,279.4,417.8,417.8,116.8,101.6,103,117,-3,117,117,117,117,117,-0.6,311.6,365.6,365.6,311.6,365.6,365.6,-2.1999999999999997,-0.2,102.2,168.6,102.2,102.8,283.59999999999997,283.59999999999997,283.59999999999997,283.59999999999997,275.4,410.59999999999997,410.59999999999997,118,101.6,102.8,116.39999999999999,-0.8,116.39999999999999,116.39999999999999,116.39999999999999,116.39999999999999,116.39999999999999,1.6,306.8,359.6,359.6,306.8,359.6,359.6,0,2,101,170.2,101,103,287.8,287.8,287.8,287.8,279.4,417.8,417.8,116.8,101.6,103,117,-3,117,117,117,117,117,-0.6,311.6,365.6,365.6,311.6,365.6,365.6,-2.1999999999999997,-0.2,101,170.2,101,103,287.8,287.8,287.8,287.8,279.4,417.8,417.8,116.8,101.6,103,117,-3,117,117,117,117,117,-0.6,311.6,365.6,365.6,311.6,365.6,365.6,-2.1999999999999997,-0.2,101,170.2,101,103,287.8,287.8,287.8,287.8,279.4,417.8,417.8,116.8,101.6,103,117,-3,117,117,117,117,117,-0.6,311.6,365.6,365.6,311.6,365.6,365.6,-2.1999999999999997,-0.2,101,170.2,101,103,287.8,287.8,287.8,287.8,279.4,417.8,417.8,116.8,101.6,103,117,-3,117,117,117,117,117,-0.6,311.6,365.6,365.6,311.6,365.6,365.6,-2.1999999999999997,-0.2,101,170.2,101,103,287.8,287.8,287.8,287.8,279.4,417.8,417.8,116.8,101.6,103,117,-3,117,117,117,117,117,-0.6,311.6,365.6,365.6,311.6,365.6,365.6,-2.1999999999999997,-0.2,101,170.2,101,103,287.8,287.8,287.8,287.8,279.4,417.8,417.8,116.8,101.6,103,117,-3,117,117,117,117,117,-0.6,311.6,365.6,365.6,311.6,365.6,365.6,-2.1999999999999997,-0.2,101,170.2,101,103,287.8,287.8,287.8,287.8,279.4,417.8,417.8,116.8,101.6,103,117,-3,117,117,117,117,117,-0.6,311.6,365.6,365.6,311.6,365.6,365.6,-2.1999999999999997,-0.2,101,170.2,101,103,287.8,287.8,287.8,287.8,279.4,417.8,417.8,116.8,101.6,103,117,-3,117,117,117,117,117,-0.6,311.6,365.6,365.6,311.6,365.6,365.6,-2.1999999999999997,-0.2,101,170.2,101,103,287.8,287.8,287.8,287.8,279.4,417.8,417.8,116.8,101.6,103,117,-3,117,117,117,117,117,-0.6,311.6,365.6,365.6,311.6,365.6,365.6,-2.1999999999999997,-0.2,101,170.2,101,103,287.8,287.8,287.8,287.8,279.4,417.8,417.8,116.8,101.6,103,117,-3,117,117,117,117,117,-0.6,311.6,365.6,365.6,311.6,365.6,365.6,-2.1999999999999997,-0.2,98.6,168.4,98.6,103.4,286.4,286.4,287.59999999999997,287.59999999999997,278.2,416.6,416.6,115.19999999999999,99.4,100.8,116.39999999999999,-4,116.39999999999999,115.8,115.8,115.8,115.8,-1.4000000000000001,310,364,364,310,364,364,-6.800000000000001,-4.6,83.39999999999999,156.6,83.39999999999999,105.4,276.6,276.79999999999995,285.59999999999997,285.2,268.8,407.59999999999997,407.2,104,84.6,86.2,112.79999999999998,-10,112.79999999999998,108.2,108.2,108.2,108.2,-7.6,298.6,352.4,352.4,298.6,352.4,352.4,-36.8,-34.4,60.199999999999996,138.2,60.199999999999996,108.80000000000001,260.2,260.59999999999997,280.79999999999995,280.2,253.39999999999998,391.59999999999997,390.8,87,62.8,64.4,107.2,-18.6,107.2,96.39999999999999,96.39999999999999,96.39999999999999,96.39999999999999,-16.2,279.59999999999997,332.6,332.6,279.59999999999997,332.6,332.6,-80.4,-77.60000000000001,37.6,119.6,37.8,112.4,242.20000000000002,243.00000000000003,274.40000000000003,273.20000000000005,236.39999999999998,372.8,371.4,70.19999999999999,42,43.6,101.6,-26.400000000000002,101.6,84.6,84.6,84.6,84.6,-23.799999999999997,258.8,310.8,310.8,258.8,310.8,310.8,-120.8,-117.6,23.200000000000003,107,23.400000000000002,114.99999999999999,229.6,230.39999999999998,269.20000000000005,267.8,224.40000000000003,359,357.2,59.199999999999996,29.2,30.8,97.8,-30.8,97.8,76.8,76.8,76.8,76.8,-28.4,244.20000000000002,295.2,295.2,244.20000000000002,295.2,295.2,-145.2,-141.79999999999998,101.4,168,101.4,102.8,282,282,282,282,273.8,408,408,117,101.4,102.8,116.19999999999999,0,116.19999999999999,116.19999999999999,116.19999999999999,116.19999999999999,116.19999999999999,2.4,305.2,357.4,357.4,305.2,357.4,357.4,0.8,2.8000000000000003,92,168.2,92,102.8,284.2,284.2,284.2,284.2,276,411.8,411.8,106.2,101.6,102.8,116.6,-1.2,116.6,116.6,116.6,116.6,116.6,1.2,307.6,360.59999999999997,360.59999999999997,307.6,360.59999999999997,360.59999999999997,-0.4,1.6,77.4,168.4,77.4,103,287.59999999999997,287.59999999999997,287.59999999999997,287.59999999999997,279.2,417.6,417.6,89.60000000000001,101.6,103,117,-3,117,117,117,117,117,-0.4,311.4,365.4,365.4,311.4,365.4,365.4,-2.1999999999999997,0,62.4,168.6,62.4,103.2,291.2,291.2,291.2,291.2,282.6,423.20000000000005,423.20000000000005,72.39999999999999,101.8,103.2,117.19999999999999,-4.8,117.19999999999999,117.19999999999999,117.19999999999999,117.19999999999999,117.19999999999999,-2.1999999999999997,315.4,370.2,370.2,315.4,370.2,370.2,-3.8,-1.7999999999999998,52.2,168.79999999999998,52.2,103.2,293.40000000000003,293.40000000000003,293.40000000000003,293.40000000000003,284.8,426.99999999999994,426.99999999999994,60.8,101.8,103.2,117.6,-6,117.6,117.6,117.6,117.6,117.6,-3.2,317.8,373.4,373.4,317.8,373.4,373.4,-5,-2.8000000000000003]],"ge":["#Vertex_Z",[-15.96,-7.52,-7.52,-1.92,-13.4,21.44,-20,-20,0,5.48,1.28,1.28,25.28,5.48,1.28,1.28,25.28,9.879999999999999,-4.92,-4.92,0,9.879999999999999,-4.92,-4.92,0,-15.440000000000001,-6.6000000000000005,-6.6000000000000005,-1.96,-12.4,21.400000000000002,-20.04,-20.04,-0.24,5.48,1.28,1.28,25.28,5.48,1.28,1.28,25.28,9.68,-5.12,-5.16,-0.24,9.68,-5.12,-5.16,-0.24,-15.440000000000001,-6.6000000000000005,-6.6000000000000005,-1.96,-12.4,21.400000000000002,-20.04,-20.04,-0.24,5.48,1.28,1.28,25.28,5.48,1.28,1.28,25.28,9.68,-5.12,-5.16,-0.24,9.68,-5.12,-5.16,-0.24,-12.52,-2.04,-2.04,-2.48,-7.039999999999999,21.200000000000003,-20.240000000000002,-20.240000000000002,-1.6400000000000001,5.48,1.28,1.28,25.28,5.48,1.28,1.28,25.28,8.52,-6.2,-6.4,-1.6400000000000001,8.52,-6.2,-6.4,-1.6400000000000001,-11.36,-0.28,-0.28,-3,-4.88,21.080000000000002,-20.36,-20.36,-2.52,5.48,1.28,1.28,25.28,5.48,1.28,1.28,25.28,7.76,-6.879999999999999,-7.199999999999999,-2.52,7.76,-6.879999999999999,-7.199999999999999,-2.52,-11.44,-0.16,-0.16,-3.6799999999999997,-4.6000000000000005,20.92,-20.48,-20.48,-3.3200000000000003,5.48,1.28,1.28,25.28,5.48,1.28,1.28,25.28,7.08,-7.48,-7.92,-3.2800000000000002,7.08,-7.48,-7.92,-3.2800000000000002,-13.16,-2.2,-2.2,-4.5200000000000005,-6.879999999999999,20.84,-20.560000000000002,-20.560000000000002,-3.88,5.48,1.28,1.28,25.28,5.48,1.28,1.28,25.28,6.6000000000000005,-7.92,-8.48,-3.5999999999999996,6.6000000000000005,-7.92,-8.48,-3.5999999999999996,-15.72,-5.48,-5.48,-5.24,-10.600000000000001,20.8,-20.6,-20.6,-4.12,5.48,1.28,1.28,25.28,5.48,1.28,1.28,25.28,6.44,-8.040000000000001,-8.68,-3.5199999999999996,6.44,-8.040000000000001,-8.68,-3.5199999999999996,-16.96,-7.5600000000000005,-7.5600000000000005,-4.6000000000000005,-13.08,20.96,-20.44,-20.44,-3.04,5.48,1.28,1.28,25.28,5.48,1.28,1.28,25.28,7.359999999999999,-7.24,-7.68,-2.4,7.359999999999999,-7.24,-7.68,-2.4,-16.48,-7.76,-7.76,-2.88,-13.56,21.28,-20.16,-20.16,-1.08,5.48,1.28,1.28,25.28,5.48,1.28,1.28,25.28,9,-5.76,-5.88,-0.8,9,-5.76,-5.88,-0.8,-12.52,-2.04,-2.04,-2.48,-7.039999999999999,21.200000000000003,-20.240000000000002,-20.240000000000002,-1.6400000000000001,-34.48,-41.52,-41.52,-18.32,16.72,15.56,15.56,38.76,5.08,-9.8,-1.4000000000000001,-11.76,6.24,0.28,-8.4,9.44,-12.52,-2.04,-2.04,-2.48,-7.039999999999999,21.200000000000003,-20.240000000000002,-20.240000000000002,-1.6400000000000001,-29.04,-35.52,-35.52,-12,11.479999999999999,9.68,9.68,33.16,6.12,-9.44,-2.44,-10,7.119999999999999,-1,-8.32,7.720000000000001,-12.52,-2.04,-2.04,-2.48,-7.039999999999999,21.200000000000003,-20.240000000000002,-20.240000000000002,-1.6400000000000001,-16.12,-21.200000000000003,-21.200000000000003,2.72,-1.04,-4.36,-4.36,19.56,8.040000000000001,-7.76,-5.04,-4.72,8.44,-4.28,-7.4,2.52,-12.52,-2.04,-2.04,-2.48,-7.039999999999999,21.200000000000003,-20.240000000000002,-20.240000000000002,-1.6400000000000001,-0.8799999999999999,-4.2,-4.2,19.759999999999998,-16.080000000000002,-21.16,-21.16,2.8000000000000003,8.44,-4.28,-7.4,2.52,8.040000000000001,-7.76,-5.04,-4.72,-12.52,-2.04,-2.04,-2.48,-7.039999999999999,21.200000000000003,-20.240000000000002,-20.240000000000002,-1.6400000000000001,11.84,10.04,10.04,33.519999999999996,-28.759999999999998,-35.24,-35.24,-11.76,7.119999999999999,-1,-8.32,7.720000000000001,6.12,-9.44,-2.44,-10,-12.52,-2.04,-2.04,-2.48,-7.039999999999999,21.200000000000003,-20.240000000000002,-20.240000000000002,-1.6400000000000001,17.16,16,16,39.2,-34.16,-41.16,-41.16,-17.96,6.24,0.28,-8.4,9.44,5.08,-9.8,-1.4000000000000001,-11.76,-12.52,-2.04,-2.04,-2.48,-7.039999999999999,21.200000000000003,-20.240000000000002,-20.240000000000002,-1.6400000000000001,11.84,10.04,10.04,33.519999999999996,-28.759999999999998,-35.24,-35.24,-11.76,7.119999999999999,-1,-8.32,7.720000000000001,6.12,-9.44,-2.44,-10,-12.52,-2.04,-2.04,-2.48,-7.039999999999999,21.200000000000003,-20.240000000000002,-20.240000000000002,-1.6400000000000001,-0.8799999999999999,-4.2,-4.2,19.759999999999998,-16.080000000000002,-21.16,-21.16,2.8000000000000003,8.44,-4.28,-7.4,2.52,8.040000000000001,-7.76,-5.04,-4.72,-12.52,-2.04,-2.04,-2.48,-7.039999999999999,21.200000000000003,-20.240000000000002,-20.240000000000002,-1.6400000000000001,-16.12,-21.200000000000003,-21.200000000000003,2.72,-1.04,-4.36,-4.36,19.56,8.040000000000001,-7.76,-5.04,-4.72,8.44,-4.28,-7.4,2.52,-12.52,-2.04,-2.04,-2.48,-7.039999999999999,21.200000000000003,-20.240000000000002,-20.240000000000002,-1.6400000000000001,-29.04,-35.52,-35.52,-12,11.479999999999999,9.68,9.68,33.16,6.12,-9.44,-2.44,-10,7.119999999999999,-1,-8.32,7.720000000000001,-10.56,-0.04,-0.04,-0.76,-5,21.44,-20,-20,0,5.48,1.28,1.28,25.28,5.48,1.28,1.28,25.28,9.879999999999999,-4.92,-4.92,0,9.879999999999999,-4.92,-4.92,0,-10.56,-0.04,-0.04,-0.76,-5,21.44,-20,-20,0,5.68,1.2,1.2,25.2,5.68,1.2,1.2,25.2,9.879999999999999,-4.92,-4.92,0,9.879999999999999,-4.92,-4.92,0,-10.56,-0.04,-0.04,-0.76,-5,21.44,-20,-20,0,6.16,1.04,1.04,24.96,6.16,1.04,1.04,24.96,9.879999999999999,-4.92,-4.92,0,9.879999999999999,-4.92,-4.92,0,-10.56,-0.04,-0.04,-0.76,-5,21.44,-20,-20,0,6.840000000000001,0.76,0.76,24.439999999999998,6.840000000000001,0.76,0.76,24.439999999999998,9.879999999999999,-4.92,-4.92,0,9.879999999999999,-4.92,-4.92,0,-10.56,-0.04,-0.04,-0.76,-5,21.44,-20,-20,0,7.6,0.43999999999999995,0.43999999999999995,23.56,7.6,0.43999999999999995,0.43999999999999995,23.56,9.879999999999999,-4.92,-4.92,0,9.879999999999999,-4.92,-4.92,0,-10.56,-0.04,-0.04,-0.76,-5,21.44,-20,-20,0,8.36,0.08,0.08,22.28,8.36,0.08,0.08,22.28,9.879999999999999,-4.92,-4.92,0,9.879999999999999,-4.92,-4.92,0,-10.56,-0.04,-0.04,-0.76,-5,21.44,-20,-20,0,8.96,-0.28,-0.28,20.72,8.96,-0.28,-0.28,20.72,9.879999999999999,-4.92,-4.92,0,9.879999999999999,-4.92,-4.92,0,-10.56,-0.04,-0.04,-0.76,-5,21.44,-20,-20,0,9.44,-0.6,-0.6,19,9.44,-0.6,-0.6,19,9.879999999999999,-4.92,-4.92,0,9.879999999999999,-4.92,-4.92,0,-10.56,-0.04,-0.04,-0.76,-5,21.44,-20,-20,0,9.719999999999999,-0.8400000000000001,-0.8400000000000001,17.44,9.719999999999999,-0.8400000000000001,-0.8400000000000001,17.44,9.879999999999999,-4.92,-4.92,0,9.879999999999999,-4.92,-4.92,0,-10.56,-0.04,-0.04,-0.76,-5,21.44,-20,-20,0,9.879999999999999,-1.04,-1.04,16.32,9.879999999999999,-1.04,-1.04,16.32,9.879999999999999,-4.92,-4.92,0,9.879999999999999,-4.92,-4.92,0,-17.92,-7.92,-7.92,-6.879999999999999,-13.16,21.200000000000003,-20.16,-20.16,-5.5200000000000005,3.5199999999999996,1.8399999999999999,1.8399999999999999,25.28,3.5199999999999996,1.8399999999999999,1.8399999999999999,25.28,5.4,-8.8,-9.96,-4.44,5.4,-8.8,-9.96,-4.44,-22.160000000000004,-12.48,-12.48,-10.4,-17.88,21,-20.2,-20.2,-8.72,3.12,1.88,1.88,25.12,3.12,1.88,1.88,25.12,2.44,-11.399999999999999,-13.200000000000001,-7.48,2.44,-11.399999999999999,-13.200000000000001,-7.48,-29.96,-20.92,-20.92,-16.96,-26.6,20.560000000000002,-20.240000000000002,-20.240000000000002,-14.68,2.2,1.8399999999999999,1.8399999999999999,24.56,2.2,1.8399999999999999,1.8399999999999999,24.56,-3.84,-16.919999999999998,-19.88,-14.2,-3.84,-16.919999999999998,-19.92,-14.2,-34.12,-25.44,-25.44,-20.44,-31.240000000000002,20.28,-20.2,-20.2,-17.8,1.6,1.7199999999999998,1.7199999999999998,24.16,1.6,1.7199999999999998,1.7199999999999998,24.16,-7.880000000000001,-20.64,-24.04,-19.16,-7.880000000000001,-20.6,-24.08,-19.24,-33.239999999999995,-24.48,-24.48,-19.68,-30.28,20.36,-20.2,-20.2,-17.16,1.7599999999999998,